болады -0.0038460554 0.004610221 0.0033515047 0.008375565 -0.007969656 -0.020361181 0.010762966 0.0232838 -0.0113140475 -0.008987635 0.0068822554 -0.009040278 -0.0066746897 0.00856519 -0.003684174 -0.0041999943 0.004728414 -0.007855201 -0.011356204 -0.024217866 0.008783029 0.0076882476 0.010861268 -0.0010198989 0.0048646433 -0.0017852703 -0.004235965 -0.00022395341 -0.0129240565 -0.004336359 -0.0010654822 0.0008622993 0.015864525 -0.01247196 -0.0069950754 0.007742924 0.009527505 -0.012266111 -0.0028660232 -0.015095481 -0.008279637 -0.0035284036 -0.010100844 -0.0046488866 0.0079387445 -0.0036749654 -0.01148977 0.005866697 0.011084644 0.012146775 -0.002614248 0.0010557601 -0.0014926738 0.0017893307 0.006334275 0.00019080695 0.0061835814 -0.0060971263 -0.008584929 0.014149884 0.0003758065 0.001531141 -0.003724535 -0.011182214 -0.009806295 0.009204849 0.003242993 0.013508881 -0.011570049 0.013428131 -0.00035787516 0.010294206 0.0057171998 -0.009128643 0.01300061 0.0048911637 0.010723007 -0.0005415314 -0.009639469 -0.0058445004 -0.0036829128 0.0065595545 -0.0044468753 0.019248176 -0.011914088 0.0019333094 0.010602487 0.005428225 0.0040519214 0.0057421783 0.011270411 0.0059157168 0.0029211808 0.0024260955 0.021259094 0.012339455 -0.0038293835 -0.012877867 0.0031229411 0.0026780358
алма -0.011006053 0.006636106 0.0036060018 0.00538478 0.008508827 -0.015768219 0.0040555187 0.016166057 -0.0074691144 -0.010140533 -0.0008639008 -0.013429431 -0.0072168284 0.008589424 0.0042029647 0.0054198243 0.008157578 0.0012569968 -0.0059709176 -0.011241324 0.003184093 -0.0026668417 0.010950845 -0.011383868 0.005556907 0.00402535 -0.0073409355 0.00010522084 -0.005565237 0.0064895027 0.014851702 -0.0031253716 0.003872012 -0.009198243 0.00048400095 0.009656486 0.007633668 0.0015569578 0.007581378 0.0018262252 0.009125905 -0.013427824 -0.010140099 -0.00035388267 0.0027297807 0.0055014957 0.0031915405 -0.004469003 0.0060006436 0.003859559 0.011626435 -0.011942221 0.001798046 0.0040987283 -0.0024751283 0.011951978 0.0100573655 0.0071147177 -0.004306211 0.011371868 -0.0071253814 0.0038824603 -0.004084314 -0.0076124966 -0.002524703 0.010188306 0.010672513 -0.00018058156 0.001073051 0.01474919 -0.007949088 -0.0074929455 0.010590428 0.0067825587 0.005460375 -0.003961201 -0.0049131336 -0.0021939657 7.337506e-05 -0.0016715958 -0.0115818 0.006529787 -0.002146925 0.0023187369 -0.0029978773 -0.0022260882 0.0033355597 -0.0023930727 0.007920123 -0.0056229704 0.007880306 0.0025434277 0.0020431369 -0.0058093388 0.005597348 0.007718797 0.009071644 -0.006777852 -0.007888408 0.0017552385
көп -0.0021668735 0.005589483 -0.008262524 -0.0019320332 0.008531863 -0.0017936042 -0.0010778641 0.012373222 -0.012879658 0.0025785256 -0.0051176515 -0.008192359 0.0077434434 0.0020766906 0.008746296 -0.008037757 0.006221739 0.003728732 -0.010266385 -0.01498031 -0.005992214 -0.003265556 -0.0011340397 -0.009835297 0.0069853067 -0.0038616862 0.006286903 0.0012269007 -0.010288727 0.0035232853 0.009970395 -0.0059723374 -0.002933596 -0.0059528304 -0.011649989 0.004980045 0.00063711754 -0.001193497 -0.0008957163 -0.007882383 -0.00457242 -0.004217784 -0.0018933655 0.006650541 0.009553827 0.0020254655 -0.0011846477 -0.0051958994 7.370483e-06 0.0010982187 0.0053292946 -0.004606945 -0.0051642046 -0.00722398 -0.010747869 -0.0027706237 -0.0008472049 -0.00371442 -0.0096929725 -0.00033088494 0.0057865554 -0.0029228125 0.008791153 -0.0010006379 -0.012800788 0.014017566 0.010515959 0.010776212 -0.012842192 0.013581904 2.1914995e-05 0.0065588276 0.009014837 0.0021582355 0.0027429012 0.011402951 0.011927764 0.00390636 -0.007549861 0.0017461275 -0.00082315196 -0.0060662585 -0.014927716 0.008052172 -0.002767875 -0.0057288804 -0.001671301 -0.00028520214 0.01351713 -0.00045698538 0.002005137 0.009480732 0.008535247 -0.0025981062 0.015875325 0.010224457 0.009285246 -0.0036047762 0.009829832 -0.009539725
өседі -0.01073583 0.012635087 -0.0018613964 -0.0023070571 0.0049888724 -0.014333572 0.005688966 0.017993994 0.0012858445 -0.011466524 0.009077931 -0.0010503369 0.0022176388 -0.004883558 0.009458147 -0.003967807 0.010201206 -0.012045651 -0.010109577 -0.0043837097 0.0026705863 -0.00028913806 0.012554675 0.008233285 -0.011149391 0.0039597033 0.0035841404 -0.000393062 -0.0019260212 2.1308954e-06 0.0053500063 -0.00237856 -0.002339923 -0.0059722695 0.00041978547 0.016102431 0.010320677 -0.01081895 -0.012022521 0.0021888323 0.004470116 -0.0013078746 0.004963987 -0.0029878495 0.013346214 0.0004501604 -0.00022655913 -0.005000439 0.0015403631 -0.00037312368 0.008451415 -0.0024906276 -0.007763441 -0.009097896 -0.0077105085 0.003524053 0.0032777619 0.010016604 0.0020857903 -0.0005150222 0.0016289441 0.0058567906 0.008018944 -0.003642734 -0.0017909892 -0.0006334699 0.0022937695 0.014273807 -0.008959343 -0.0013322424 0.001406359 -0.0026342475 0.004191103 0.010243017 0.004402575 -0.0015566827 -0.0030778584 0.007158221 -0.010883965 0.004156607 -0.007897673 0.008981405 -0.0030657493 0.011966497 -0.0061487574 -0.0028254662 0.012575858 0.013051676 0.0033092787 -0.010447961 -0.00015016188 0.003061381 -0.001222756 -0.00082853355 0.018551212 0.0049435664 0.009867815 -0.0120779 -0.000882581 -0.008494061
тәтті -0.009093815 0.0034230421 -0.008283279 -0.0023061556 0.0042206706 -0.0016427422 0.0032724086 0.009695371 -0.0076438244 0.004158391 -0.0067040296 0.0011302842 -0.009196707 0.0030520232 -0.004537799 -0.005571544 -0.0017932774 0.0009022496 0.0041753827 -0.013355329 0.001353188 -0.0069214604 0.0095486 0.008309772 -0.0035815449 0.0015006755 -0.001401394 0.0025618202 -0.01187692 0.00028703077 0.010821636 0.0033689747 0.0046829036 -0.012198524 0.005682352 -0.0010339792 -0.002188941 -0.00020829283 -0.002350586 -0.0044116257 0.0027784237 -0.011652349 -0.0103679 0.009023123 0.01072984 -0.009004001 0.00095811504 -0.0022119014 0.008425605 -0.0055433563 0.007051026 0.002405452 0.011433383 -0.003979064 -0.0028807295 -0.0047422983 -0.009056482 -0.008638505 -0.003665501 -0.003615066 0.0059541212 -0.005702834 0.003010468 -0.0011433327 -0.008238547 0.0029339874 0.0121953795 0.013224501 -0.009474019 0.015256162 -0.008941185 0.007480829 0.0010471578 0.0035375946 0.00797273 0.009167579 -0.0006900817 0.009046129 0.0038205725 -0.008240723 -0.009681799 -0.005844348 -0.0024703573 0.0043175966 -0.010460463 -0.008274719 0.010748871 0.0077537172 -0.005406944 -0.005067862 0.008300011 -0.0015436357 0.004972897 -0.0029808201 0.009260155 -0.004309716 0.008959915 0.001499621 0.0023111268 0.0011596066
пайдалы -0.010448162 0.004276346 -0.0020360511 -0.009785195 -0.008836257 -0.008543585 0.006559908 0.0113354 -0.009841937 -0.009725962 -0.005486558 -0.006101995 -0.0084049795 -0.00852083 -0.0019561055 -0.0097625945 -0.004979338 -0.010452386 -0.0039135455 -0.00970026 -0.008134535 0.00064326875 0.010072301 0.0067020175 -0.008288818 -0.0027346548 0.001162987 -0.01266499 -0.0012566332 0.006376557 0.009183988 -0.007626956 -0.0012119267 -0.010824002 -0.0024812703 0.014500225 0.006493016 0.0017552346 0.0030545723 -0.008710201 0.010236355 -0.011862913 -0.007961563 -0.0023517944 0.0032551982 -0.0049451888 -0.0027332786 0.0053582056 0.0025966743 -0.00015117133 0.005651055 -0.01008876 0.00931725 0.009015702 -0.010820899 0.0048416816 0.010799195 -0.007210433 -0.009562962 -0.005177784 0.0092620915 -0.00032674544 0.009458904 -0.009829479 -0.00073770666 0.0063524717 0.0028457388 0.0062906947 -0.01214933 -0.0033851732 -0.00077474635 0.0070158676 0.011606291 0.005811946 0.0037562668 0.010268572 -0.0076295175 0.0035858364 -0.0035278741 0.005334747 0.0056074923 -0.0046682344 0.0004618199 -0.003177002 -0.00396567 -0.0086934 -0.002479658 0.014779796 0.0018570853 0.0022785745 0.0142551 0.011958386 -0.008559662 -0.00187192 0.015980655 0.008731748 0.0011046508 -0.011915301 0.0042339596 -0.008588461
піскен 0.00667624 -0.0024467355 -0.002039133 0.00089156185 0.00041197913 -0.005800475 0.008274498 0.0072192773 -0.00660092 -0.0042363927 0.0054763625 -0.0022754483 -0.001608967 0.010546911 -0.0046228655 -0.0020672674 0.0102892965 0.0021959466 -0.000118695454 -0.016932297 0.001872449 -0.0009634632 0.0112819355 0.0002634279 0.00061818067 0.0031023205 -0.0037264968 -0.007980313 -0.00265466 -0.0023069426 0.010081415 0.009939254 0.0028560967 0.00040416248 -0.008738883 0.00662647 -0.0062775547 -0.012253299 -0.0074642496 -0.014491505 0.0081597 -0.010042169 0.007559662 -0.0072097154 0.007313412 0.0077609443 -0.009978807 -0.012057753 -0.0010367632 -0.0013966272 0.0025060705 -0.010826332 -0.0073386775 0.003589357 -0.00945851 -0.006484647 -0.0017215826 -0.008346692 -0.009630615 -0.0058940123 0.00062694284 -0.0039503635 0.006846585 -0.00011414819 -0.0078808395 0.009803534 -0.00404144 -0.000762155 -0.011959152 0.001349598 -0.004899504 0.0077332305 0.00094484776 0.0050057145 0.0113991685 -0.0052918415 0.0060528168 0.0064772624 -0.0066446112 0.008118289 0.004483732 -0.004508237 -0.011912784 0.008979357 -0.0051976065 -0.0060379724 0.011805465 0.00035410604 -0.002739899 -0.00060083467 0.0024865838 0.0035669883 -0.0036607787 0.00094982533 0.0053157117 0.0044293394 0.010653021 -0.00882821 -0.00017420834 0.0037321174
алмұрт 0.006405843 -0.0020579477 0.007904358 0.007780949 -0.0038179632 -0.0072406614 0.0065963543 0.004010838 -0.009114575 -0.009591682 -0.0011683679 -0.0044230437 0.0032805202 -0.0013455746 0.00047904416 0.0011259301 0.005928406 -0.004887363 -0.008031418 -0.01760174 0.00085589016 0.008168497 0.0035630872 -0.010056626 -0.0089055 0.0075660245 -0.0057373936 0.0029854565 -0.009696838 0.008234509 -0.0027199003 0.004180648 0.0024820461 -0.009803118 -0.00590734 0.004112646 -0.0047759544 -0.004802002 -0.009303726 -0.0032372451 0.010048941 -0.0072033964 -0.00175154 0.003506568 0.013112166 -0.007868854 -0.009161585 -0.005055372 0.0126028275 0.0023709014 -0.0057131145 -0.0033654086 0.01104741 -0.007061737 -0.0064981934 0.012011236 -0.007997274 0.0042138193 -0.0018804953 0.0093695475 0.009336362 -0.0022994264 -0.0036514706 0.007075409 -0.002509271 0.010378583 -0.0071045444 0.013967701 -0.006221186 0.00013984615 -0.0003413383 0.00060556136 0.008701392 -0.0020899437 0.00057640614 0.0046584234 0.010050291 -0.004694335 -0.0011690588 -0.0064417757 -0.008503702 0.0016496686 -0.01407754 0.009605117 -0.001712849 -0.0023138558 0.0074750716 0.015594965 0.012550869 -0.0025541666 0.0074981684 -0.000846507 -0.008509841 0.007449521 0.004477041 0.0033114783 0.001155116 -0.00783817 0.005299308 -0.0061508487
жасыл -0.011068949 0.01093661 0.0030335907 0.009026702 0.0074446765 -0.0038025803 0.012044636 0.002858938 -0.009830356 0.0015768078 0.003603117 -0.009354325 0.008686209 -0.0023571434 0.0099645555 -0.00030358424 -0.005222871 -0.0062009105 -0.008938204 -0.010562675 0.0016185091 0.010868527 0.0113071725 -0.0074787005 0.0027109848 0.0029723686 -0.004171433 -0.012290993 -0.0017821783 -0.008406144 0.009820792 -0.004983704 0.0088096345 0.007215428 -0.002598922 0.009286907 -0.001245207 0.0039390135 0.0025561247 -0.014350148 -0.0016352141 -0.00075741526 -0.00075809174 -0.0013643701 0.0028291163 -0.003419151 -0.0015184227 0.0021310307 -0.0011357309 -0.002352171 0.0026977847 -0.0017093999 0.0011410302 -0.004115043 0.0029954696 0.00032600522 0.0029280896 0.0008566664 0.0035329226 -0.0044002007 -0.0058514797 -0.0038562987 0.009654479 -0.0032377015 -0.01405866 0.0031451073 -0.0024218287 0.009912375 -0.014212358 0.008717994 -0.012198817 0.0022743978 0.009752524 0.0073915827 -0.003131181 -0.0039616777 -0.0051966067 -0.007643914 -0.01324977 -0.00078497804 -0.0023169112 -0.0052976585 0.0015631296 0.0073848385 0.0025038961 0.0012336061 0.0030959055 -0.0020926804 0.001286453 0.0037764867 -0.00036602316 0.0040140813 0.0026057805 -0.00024904855 0.015945146 0.011895645 0.005040439 0.0040318933 0.0071297903 -0.0075495364
дәмді -0.0065410733 -0.0047481693 -0.008832115 0.007924208 -0.0013862032 -0.013727745 -0.002134674 0.012534055 -0.006032454 -0.0066029304 0.0012461457 -0.006451658 -0.0027610215 0.0019770921 -0.0024038388 0.007182948 0.004810573 -0.014574014 0.004760684 -0.014247681 0.0014568124 0.005601462 -0.003208451 -0.0028551284 0.0073353047 -0.0033319192 -0.009428185 0.0063208574 -0.0049344795 -0.004897756 0.01183604 0.0053457636 0.0075924937 0.006705629 -0.010780848 0.010061678 0.002695641 0.00073279766 5.0159633e-07 -0.0007704167 0.005118605 0.0017029637 -0.003907646 -0.004697225 0.0035017368 0.00071148295 -0.0053060213 0.0040682973 0.0073862895 0.009277626 0.005444512 0.0061969846 -0.00015513087 0.00861578 0.00262344 -0.0057224995 -0.0029613874 -0.0019859741 0.0027031775 0.0018115428 -0.0019276333 0.00842582 0.00950051 -0.003464382 -0.009443268 -0.0012109758 -0.0028357042 -0.0057677063 -0.0030942154 0.0015769083 -0.00033838424 0.0064669778 -0.00046105785 -0.009386124 0.005965531 -0.0044790884 0.0040220534 -0.003615751 0.0035116514 0.002096528 0.0018298079 -0.00065336324 -0.006605242 0.013782663 -0.0017900461 -0.0058940165 -0.005689642 0.0066384003 0.010287349 0.005113931 -0.0039516217 0.011516083 0.0038367717 0.008550393 0.015689164 -0.0038579144 -0.006433663 0.002750207 0.010523265 0.0014472143
бақшада 0.00503966 0.0010559652 0.006339015 -0.009910047 -0.007561825 -0.015465232 -0.0014167822 0.014487055 -0.007697481 -0.011984129 0.0080207465 -0.008333914 0.007136417 -0.0038843306 0.0052131508 0.0032580304 0.003453414 -0.008506906 0.000903891 -0.017981153 -0.0017197527 -0.0009922549 0.009678793 -0.0045784377 -0.007768201 0.005377999 -0.0026949279 -0.007437808 0.0035645699 0.003629963 0.00021312671 0.001886448 0.0131417755 0.0045750407 0.0035330423 0.010800151 0.0031184072 -0.005758691 -0.008503143 -0.006738125 -0.0007250299 -0.006372645 -0.007336753 0.0071830186 -0.0015079406 -0.0093502505 -0.005384851 -0.0039507668 -0.003573196 0.00281926 -0.0015957298 -0.0035971834 -0.0058130687 0.0025543699 0.001965456 0.003315525 -0.0042506824 -0.00087340036 0.004079445 0.0071324897 -0.007869373 -0.0026887464 0.0026286165 -0.00013758993 -0.015028755 0.009203984 -0.0062655704 -0.0025824753 -0.002239946 0.0036666845 -0.00023860135 0.010040705 0.0010561573 0.009578878 0.0073973583 0.012450374 0.008179939 -0.0089662485 -0.007923854 0.008204124 0.0035419883 0.011404202 0.0007618919 0.016014906 -0.013701396 0.0041851043 -0.0022347954 0.010157827 0.01077368 0.0035887805 0.013645822 0.0049947263 -0.0015418094 0.007381501 0.0019391624 0.0045661256 0.012950781 -0.009403291 0.0049376683 -0.0106232455
қызыл 0.008369243 0.010116031 0.00037313605 0.0050163693 0.0022361705 -0.012860929 0.0007757101 0.0134457685 -0.007768517 -0.0066374866 0.004459878 -0.0007729031 -0.0028777549 -0.0020420346 0.006675384 -0.006910996 -0.002199774 -0.010555631 -0.0056108325 -0.015860481 -0.003920289 -0.0073884595 0.0032215142 -0.00955501 -0.010603018 -0.0074519906 -0.008473901 0.00380264 0.0010164677 0.00019975536 0.0002962545 -0.0066011683 0.003570363 -0.0020228992 -0.0019283302 0.0054509267 0.0012873156 -0.0031874029 -0.0094755115 -0.0109151695 -0.0076073995 -0.005487252 0.0011843123 0.0073865294 0.0018816772 -0.0038010536 0.0075952318 -0.0017252956 0.00047596637 0.0101403715 0.005392995 -0.0071118623 0.0076567302 0.0048554675 -0.008140335 0.0020742451 0.001612098 0.0060583446 -0.004087313 -0.00042598214 0.0025283147 0.0015153962 0.0014991219 -0.0044055935 -0.010051414 0.010588056 0.009647092 0.01213101 -0.012977693 0.007912929 -0.006294933 0.010578924 0.0063460222 0.0047559324 0.0067138956 0.008621199 -0.004309881 0.00812605 -0.0059023164 -0.0031449 -0.0036054465 0.011494945 -0.011472995 0.003661928 0.0041295723 -0.00021487677 -0.00405372 -0.0013445481 0.01260914 0.005795667 0.00949105 -0.0005194914 -0.009355971 0.005079401 0.012776467 -0.0023130188 -0.0052899453 -0.0059483936 -0.0039492715 -0.004134268
сары -0.003612348 -0.0033250225 0.008252114 -0.009861867 0.005353863 -0.0015235493 0.0007239924 0.01629312 0.006398174 -0.008212964 -0.0064417394 -0.010330657 -0.0092069805 -0.0020214615 -0.0048691835 -0.009680204 0.001597449 -0.0014622433 0.004787096 -0.010454832 -0.0036993546 0.0023956497 0.0023907376 0.007033666 -0.00065952976 0.007966731 -0.009821831 0.0054939752 -0.0046677347 0.008467199 -0.0041184477 0.0028567358 0.0042853425 -0.0025971897 -0.007403906 -0.0043196213 -0.006625024 -0.011168524 0.00030520995 -0.004784479 -0.0010627164 0.002611521 -0.003129313 -0.0016573891 -0.0048016235 -0.011919047 0.0071594967 -0.007879874 -0.0031346637 0.0067319167 0.009518342 -0.008642263 0.002424927 -0.0055334577 0.0004498293 -0.0018156973 -0.0025483866 0.0027052045 0.006505048 0.00924239 -0.008522344 -0.0051232837 0.008171941 0.00012783108 -0.008579922 0.0040950477 0.011746871 0.0027431077 -0.014053542 0.0075977254 0.0030726513 0.0071337987 0.0076991026 -0.0054251943 0.004143001 0.0019421541 0.0063575665 -0.007875835 -0.011676942 0.0017504626 -0.0102818 0.0078000138 -0.0056379056 0.016235715 -0.008507526 -0.0007902873 0.010119692 0.0013730639 -0.0012211099 0.0010143832 0.0072452105 0.0003631428 0.0062927837 -0.006732513 0.009474294 0.0040340074 0.01149403 0.0026198241 0.008048514 0.0061264667
өрік -0.011487224 0.012221736 -0.009018712 -0.0028511556 -0.0043728617 -0.012993962 -0.0056293914 0.0006460499 -0.008414902 -0.004484261 -0.005572961 0.0018838078 -0.01082628 -0.0043417374 0.010361353 0.005577147 0.008873305 -0.0009209728 -0.0013912312 -0.0152512 0.0067912485 0.0041980543 0.010002974 0.00535058 0.0067295316 0.009674634 -0.01195223 -0.010383638 -0.0020585384 0.006308398 0.011415311 0.006624263 0.011708092 -0.008288165 0.0038697866 0.0017368748 -0.008303059 0.0053102435 -0.0006896348 -0.00900948 -0.0014697496 -0.009588209 0.003822374 0.0043741562 0.0022149577 -0.009610708 -0.0058811214 -0.0027625745 0.010018509 -0.0011794063 0.0031778337 -0.0013324989 -0.005280711 0.002778717 -0.0028619736 0.0058095907 0.0059001297 -0.0008840765 -0.0055671185 0.0109031685 0.0062485794 0.007367889 0.0047986065 0.006605582 0.0026712085 0.0032179274 0.011358685 0.009237323 0.00011123113 0.0054547167 -0.0057758293 -0.003167925 -0.004206415 0.003178323 0.0140225515 0.011821014 -4.7957463e-05 0.0064361263 -0.00030357344 -0.0028428403 2.1480168e-05 -0.0032540164 0.002121699 0.012959346 -0.0006609657 0.004028538 0.011484951 0.013681166 0.0037647847 -0.0074206726 0.0142052565 0.010496997 0.0013247328 -5.0244096e-05 0.0011358488 -0.00043156874 0.011890517 -0.0067426465 -0.0049001626 0.007796539
картоп 0.0065480755 0.010669687 0.0002739887 -0.008622946 0.008629333 -0.008760094 0.0072361077 0.009777258 0.0074744797 -0.011532805 0.009087869 -0.011941315 -0.007696925 -0.008513436 -0.005180278 0.00646513 0.009895676 -0.0066093956 0.0026662291 -0.009270264 0.008437764 0.00680211 0.0013623791 -0.004154151 -0.007973402 0.0054035904 0.0002397502 -0.0046874513 0.005872005 -0.004225603 -0.006784005 -0.0015925595 0.002441089 -0.0084545715 -0.007349727 -0.004965373 0.009755934 0.0050348025 -0.0014183595 0.0036506618 0.008402696 -0.004017061 0.006064308 0.003758455 0.008038297 0.0059690676 -0.0061037554 -0.0036305746 0.0031089827 0.005263442 0.0052797296 0.0036224388 0.005456329 -0.008218152 -0.0040013255 -0.0054613347 0.0104693035 0.0052935574 -0.0015687944 0.006027184 -0.007232725 -0.005935332 0.003315792 0.005275694 0.0007548258 0.008577791 -0.0006039533 -0.00036327928 -0.002900096 0.00093288475 -0.0077274577 -0.007199005 0.009188761 -0.00086580956 0.0012439966 -0.006244277 0.010513239 0.001000213 -0.0009109533 0.0034895963 -0.008613143 0.0030896298 -0.000660395 -0.0038418653 0.0027767175 0.0025056845 0.009174924 0.009068413 -0.0002756539 -0.0076763523 0.010546966 0.003986635 0.005074773 0.0072720507 0.0062195375 -0.003464802 0.0019922196 0.005936513 -0.005212899 0.008001147
шырынды -0.008552839 0.006047809 0.0012319497 0.007094759 -0.004486019 -0.010348705 -0.004209953 0.009361 -0.007329771 0.00638089 -0.004631944 -0.012280254 -0.0057612676 0.0072052074 -0.0061445017 -0.0063688345 -0.006362125 0.0021858457 0.002087046 -0.0037012624 -0.0025074596 0.007273979 -0.0043295054 -0.00264432 -0.0067804004 -0.00012954666 -0.0036405255 0.0061006877 -0.0023553588 -0.008800549 -0.0026080124 -0.0060351305 0.005499156 0.0073011126 -0.008088161 0.012296866 0.009026509 -0.010062499 -0.01025479 0.005054471 0.009093415 -0.008490148 -0.0074295816 0.00782964 0.0070695397 0.0066726785 -0.009292128 -0.011367144 0.0043981005 -0.008794099 -0.002701508 -0.0049274843 0.01075483 0.009004892 -0.0037883793 0.007909363 0.0089348545 -0.0020303563 0.0076056696 0.0093872165 0.002777857 -0.0035211507 -0.0048762104 -0.0043895654 0.004263499 -0.0030883036 -0.0012003564 0.0123804845 -0.0004124499 0.010980557 -0.010750179 0.00011710492 0.008525646 -0.004558176 0.011104353 0.011212306 0.0007176587 -0.0018595196 -0.003597907 -0.004567733 -0.009740601 0.00018456823 -0.006641113 0.009626483 -0.009755387 0.005471245 -0.0047374074 -0.0033240074 0.011544306 0.008362678 0.00068148674 0.005990907 -0.005946142 -0.007949172 -0.00058209983 0.009741529 0.00858055 0.0068268795 0.008044037 0.00526244
гүлдер -0.00069213926 -0.007151875 0.0037006862 -0.00062929123 0.006884691 -0.0072939973 -0.00042572626 0.017610483 -0.0028294383 -0.003406424 -0.004693137 -0.013337122 -0.00909641 0.010286823 -0.008200153 0.0071515692 -0.008293773 -0.0065308264 -0.0039342577 -0.019121766 0.009719654 0.008595378 0.0055340016 0.003560474 -0.0006964503 0.010540836 0.00486625 -0.013593234 -0.0083944 -0.0016978338 0.0075326003 -0.0029571035 0.005961875 -0.011372897 -0.00034680442 0.01113936 0.0060063642 -0.0075618364 -0.010828623 -0.01657071 -0.000106258914 -0.013049807 -0.007834803 0.0057984265 0.013027182 7.486365e-05 -0.010509597 -0.007985931 0.012108192 0.006593198 -0.0014418307 -0.009059172 0.0022741656 0.004064857 0.0004021419 0.006200161 -0.004945786 -0.009633818 -0.010972608 0.0032746503 0.0058582285 0.005272306 0.002421517 0.0024899063 -0.005945429 0.0084030405 -0.00601465 0.013293422 0.00022751842 0.012830401 0.0034164689 0.010126953 0.0055895913 -0.0017784146 0.0063436897 -0.0067423284 0.010780501 -0.006408192 0.0036992084 -0.0023479017 -0.0011658248 -0.0067355563 -0.016428435 0.00044577365 -0.012026835 0.00054385856 -0.0041712965 0.0018172998 -0.0005235492 -0.0049352697 0.013429316 0.00849432 0.008209519 0.008893872 0.0020053743 0.01267713 -0.005756896 -0.0065976945 -0.0061347783 0.0016486618
қияр 0.00045211145 0.008823456 0.0021212476 -0.007394173 0.00836075 -0.012064266 0.010994986 0.009555414 -0.00677821 -0.0071469704 -0.0047281794 -0.009560798 0.008303746 -0.0016934236 0.008057698 -0.0108448295 0.0030079836 -0.0052929064 0.006072529 -0.015869817 0.007943903 -0.0040300796 -0.004429973 -0.006441078 -0.0040960093 -0.0025428701 -0.004841935 -0.010182892 -0.0017220294 -0.00071810157 0.0015379732 0.004494283 -0.004789992 -0.0056449953 0.0028420498 0.012917649 -0.009292527 0.004049799 0.0039927745 -0.008649612 0.00918946 -0.013100485 0.006695602 0.005423795 0.0049123615 -0.0067774565 -0.005902348 -0.005130101 0.004357644 0.0029564048 0.009882243 0.00836774 0.010029591 -0.0035576252 0.0085476795 0.0014806981 0.005665972 0.0028715117 -0.002952986 0.0058515472 -0.0045992774 -0.005342629 -0.0072860466 0.00025596705 0.0026038229 0.004019613 0.0030839215 0.0067718336 0.004293261 -0.002667277 -0.00045518894 -0.006500172 0.0068263877 0.009612538 0.011415968 0.008263055 0.00927977 0.0067486945 0.0036398422 0.009922776 -0.006532882 0.011026833 0.000670737 0.003422325 0.00575782 0.005089584 0.011742054 0.007647735 0.013260088 0.00056615047 0.01337607 0.006200075 0.0065702586 -0.0025101257 0.012040765 0.010517134 4.572726e-05 -0.0045664674 0.004776442 -0.008700036
апельсин 0.008653267 -0.008306945 -0.00726613 0.0025964663 0.006924399 -0.010398342 0.0042468435 0.0142772 -0.009059408 -0.008133259 -0.0051912568 -0.0063454276 0.0009681739 0.010422555 0.00678022 -0.0004027143 0.003227305 0.0051742843 0.008099897 0.00015044972 0.0063808006 -0.006684328 -0.0026060534 -0.0062958947 0.0055560577 -0.0017840574 -0.010031154 0.0055122986 0.0064126533 -0.0033900558 0.011681629 -0.00021287531 -0.0011516561 -0.0022094895 -0.0016030535 -8.023441e-05 0.00334623 0.003391229 0.0059073796 -0.012610967 -0.0016654613 -0.008724911 0.0069495495 0.0064800056 -0.0016029335 0.0011718736 -0.0073554977 -0.0012685391 0.011851852 -0.0015523048 -0.0033133563 -0.008881627 -0.0019769694 -0.0003189999 0.0026950717 0.011598884 -0.0027024234 0.0021674933 0.008086554 0.003447819 0.0015578456 0.010251644 0.009476798 0.006595446 -0.009123213 0.01252856 0.007342583 0.011637604 -0.0050705434 0.007368686 0.004782061 -0.0032607203 0.0092754485 0.0027104039 0.012424611 -0.0014322483 -0.0019991575 0.0063202833 -0.011562014 -0.0062252935 -0.0076096714 0.0007272784 -0.0058879885 0.011152549 0.007035086 -0.0010093391 0.0030507091 0.005854721 0.00071259745 -0.008321086 0.010957818 -0.0021132375 0.0042565255 0.0099632945 0.0070160255 0.005494684 0.005971642 -0.004899871 0.0047040433 -0.0009538649
шырыны 0.003961587 0.007375804 0.0009388511 0.0053903293 -0.008298809 6.0687275e-05 0.011245898 0.0026950606 -0.0015487297 -0.007924606 0.0006084848 -0.0007493852 0.0069227796 0.0013021968 0.0032018141 -4.1606083e-05 0.00926511 -0.010101537 -0.0076467344 -0.010895053 -0.0016764726 0.0061346767 -0.0063520093 -0.0037270926 -0.008975954 0.0060129524 -0.004308238 -0.01190994 0.0012988672 0.008759345 0.0002435072 -0.004890998 0.00610284 -0.0030381784 -0.01214654 0.013006967 -0.006609529 -0.0081347115 -0.0045113275 -0.010524881 0.0025640824 0.0055303364 0.003963201 0.008054276 0.003518443 -0.0010157801 -0.0045404793 -0.01064836 0.006476843 0.0036722608 -0.00673856 -0.0064409 -0.008492615 -0.0051883617 0.0029793247 0.010893114 0.0048826714 0.002852679 0.005792418 0.001509506 -0.00040769143 -0.00838316 0.0003723161 -0.004381079 -0.003973194 0.010522154 -0.0048378566 -0.00017551312 -0.011167914 0.0021312977 -0.006156878 0.0033626587 0.0069057755 -0.0048376275 -0.00033157313 0.0032289885 0.006800861 0.005711773 -0.006498561 -0.0031718612 -0.0071756635 0.0013839806 -0.0026355935 0.007614068 0.0042572552 -0.0026751733 0.0020358711 -0.00038429748 0.0024158892 -0.0083009815 0.0037314647 0.004211961 -0.008847941 0.009809279 -0.0036314332 -0.0062499517 -0.006080577 0.004413381 0.006698456 0.007708475
құлпынай 0.0012062399 0.0024505549 -0.0034863765 0.009152959 0.0030091251 -0.0014132884 0.0002461599 0.0064625507 0.0039707297 -0.002972797 0.0028481076 -0.0034757701 0.0043227216 0.0044871788 0.0031748652 -0.0063703824 -0.003971372 0.00088176207 -0.0070445347 -0.0065016616 2.5644626e-05 0.0045112204 -0.007027842 0.0080572385 -0.0022990345 -0.0047331336 0.0025637248 -0.004268925 -0.009897959 -0.00448948 0.0024139711 -0.008034865 0.0030764302 0.00046768296 -0.0050992295 0.006372627 0.0028134598 0.0074617406 0.00012250357 -0.0020323195 0.0035923917 -0.0056646024 -0.009179991 0.007934783 0.0013213957 -0.011000632 -0.00815349 -0.0056174104 0.0064906273 0.006195412 0.008211607 -0.008201016 0.0018046997 -0.0024013063 -0.0060058516 0.009255444 0.004589868 -0.0025443342 -0.010024183 -0.003003871 0.000198697 0.008152116 0.006396101 -0.009871195 -0.013136426 0.009885524 -0.0006850227 -0.00047801482 0.0022084885 -0.0010794943 0.0026575634 0.0004459451 -0.003891519 -3.446441e-05 0.0100156665 0.010982883 0.0034284247 0.005336618 -0.0077923387 0.0002654811 -0.0066136215 0.0027572664 -0.0058615054 0.0014074541 -0.0094958255 0.009472077 0.004911644 0.0020216971 -0.0010815618 0.00724293 -0.0025132187 0.005486407 0.00047049733 0.009445413 0.011387988 -9.76882e-05 0.004805785 -0.003954254 -0.008688135 -0.0040147086
гүл -0.00023461973 0.008795955 0.009066304 0.008796711 -0.0073839496 -0.000657103 -0.0036034514 0.0071851653 -0.0032730938 0.0037837296 0.004300759 0.0007803815 0.0084991045 0.0015327914 -0.0052465345 -0.007919517 0.007068802 -0.010040532 -0.004418836 -0.004012086 -0.0011603121 -0.0046352185 -0.0006097912 0.00026401377 0.0013957774 0.006874581 -0.0069093476 -0.00015707538 0.0040989597 0.0017914486 0.009007726 -0.0035041112 0.0097552845 -0.010810535 0.0012033837 -0.0040564155 -0.0016335062 -0.012588104 -0.003882061 -0.011142568 -0.0033030424 -0.003110266 0.0020512557 -0.001713752 -0.0035271172 -0.007838204 -0.0013605226 -0.0058015552 -0.0059929676 0.0012458015 0.009677005 0.004701062 -0.0088576 0.0035189218 -0.0072278967 -0.007056892 0.0006351914 2.2227014e-05 -0.009839915 -0.003652673 -0.0009967689 0.007996088 -0.007050196 0.0054579866 -0.005028221 0.0044330955 0.011964403 0.009200706 -0.008447178 0.010040061 0.00029626212 0.0075961947 0.0037582847 -0.0045490707 0.0061696665 -0.003206228 0.0035688716 0.0050326823 0.0013707603 0.01083262 -0.009100166 -0.0036516257 0.0010980469 0.007983374 -0.010072054 0.0010004677 0.0052235336 0.0030149047 -0.00093214086 0.004651486 0.014886983 -0.0042850566 -0.0004596366 -0.0013032262 0.000106102554 0.002819237 -0.0025666363 0.005716928 -0.004442882 0.0016835943
сәбіз -0.0012679113 0.00564527 0.0012605285 0.009451694 0.001083787 -0.010377911 0.00027144482 0.007403357 -0.005595896 -0.009777617 -0.005835745 -0.009261141 0.005519656 0.0045758486 0.008783814 0.005554068 -0.005639962 -0.00047399546 0.007327781 -0.0037719542 0.0036287466 0.0067993253 -0.0073508597 0.008672802 0.0062021064 0.009109886 -0.009324034 0.004072432 0.0048597925 -0.0014865758 -0.0039756475 0.0060089813 -0.0045747147 -0.0070867958 0.001908941 0.011771149 0.009129698 -0.0068215793 -0.010456064 0.005977981 0.006960026 -0.0070045753 -0.0088655045 -0.0048573124 -0.0012240916 -0.004485105 -0.00051945547 -0.0017353105 -0.0008706856 -0.0049841255 0.01136738 -0.0060747783 -0.006384711 0.008079054 0.0017338432 0.010187788 -0.0037299746 -0.006428509 -0.00052311644 0.00049130036 -0.008727903 -0.001144132 0.0033391672 0.0053310306 0.0037037598 0.005567994 -0.0029034503 0.00087399845 -0.0072930264 0.009807109 -0.008451134 0.0027415555 0.001088456 -0.00562739 -0.004145747 0.0072870757 -0.0071656723 -0.00051181915 5.360474e-05 0.00897395 -0.008456203 0.004853542 0.006283235 -0.0025820096 -0.005815078 0.005105245 0.0068489267 0.005532345 0.010588877 0.00047916066 0.005172805 0.00048064726 -0.008269228 0.0039508427 0.006356443 -0.0060972 0.0011957544 -0.002165667 0.0008428052 0.0074086017
қарбыз -0.00428878 -0.003652939 0.006408363 -0.0076442845 -0.008225651 -0.009147214 -0.0059841503 0.008374832 -0.0016140674 -0.005224392 -0.0068587335 -0.0044553895 -0.0023885218 0.004799906 0.00908576 0.004453157 0.009399158 -0.013793157 0.007819986 -0.010656224 0.009764664 0.0039256923 0.005667989 -0.010560464 -0.0105394535 0.009926388 -0.0047565964 -0.00045620618 0.003407524 -0.00059860083 0.0132937115 -0.00010792137 -0.005983319 -0.009852952 -0.003671222 -0.0034565 0.008160907 0.00022553759 -0.010465789 0.002843771 0.009931409 0.0009152433 0.005983052 -0.009780705 0.00471622 -0.011262911 -0.006047377 -0.0019086956 0.0032575056 0.0030884726 0.006198883 0.00013307133 0.006755994 0.008078758 -0.0070127067 0.010589083 0.0070582386 0.01012118 0.002032113 -0.00046634898 -0.0028371422 2.1905658e-05 -0.0014402217 0.007852773 -0.0037853827 0.007931124 0.0056924485 -0.0046306606 0.0018443388 0.0145386625 -0.004987729 0.00341763 -0.002573553 -0.006207378 0.013170154 -0.0006860577 0.008630843 0.0017914003 -0.005891736 0.004593652 -0.005694793 0.0001878971 -0.0039432175 0.01165324 -0.0048996317 0.000685869 -0.0056550186 0.015289457 -0.0046563675 0.00648426 0.009365675 -0.003681991 -0.0055096126 -0.006590726 0.0011656252 0.010983505 0.012361495 -0.0010613666 0.0018997913 0.0076150442
қызанақ -0.006544164 0.0005580845 0.002413098 -0.0067437626 -0.009250925 -0.015626056 0.010892826 0.012064835 -0.007753414 -0.010885005 0.0010758687 -0.00032909552 -0.0023844554 0.001946217 -0.0035093112 0.0034063468 0.0022346806 0.004722498 -0.01158037 -0.012363756 -0.00846505 0.0006816076 -0.0062992885 0.004491224 -0.0070890104 -0.0051321764 0.0037448523 -0.010929257 -0.00096891087 -0.007367668 0.012944632 0.009541573 0.0046156906 0.0033487156 0.002502957 -0.0014101118 0.010478513 -0.012698348 0.0065038106 -0.0020263584 -0.0023824987 -0.0076636192 0.008485063 -0.005618585 0.011982243 -0.0077464506 0.00677168 -0.0023520312 0.0111508 -0.00177053 0.008721154 0.007174106 0.0037590326 0.0018112817 0.0038958609 0.010124606 0.009360039 0.008874466 0.0050731157 0.010522307 0.009450437 0.0005461779 -0.00063617184 -8.903868e-05 -0.0037866426 0.0037873331 -0.0065250173 -0.005891356 -0.0067062266 0.014121748 -0.00649962 -0.006094061 0.008289011 0.001076782 0.0058906632 0.005777221 0.0049837152 0.0059937467 -0.0021181945 0.0022468616 0.007551097 0.0044664163 -0.009266216 0.012347436 0.002385298 0.0029334184 -0.001250976 0.008203487 0.009947964 0.006721893 0.0052998317 -0.005880541 -1.3441748e-05 0.0014717611 0.009558063 -0.00616238 0.012130203 -0.009925193 0.0069128326 -0.011101647
таңқурай 0.008808066 0.008499847 0.00073946477 -0.0034436488 2.2997733e-06 -0.0035384702 -0.0051037977 0.009805737 0.0004999691 0.0022597436 -0.0074836705 0.0064583207 -6.769855e-05 0.00039677497 -0.008893926 0.0033661248 0.0074366536 0.0048650005 -0.0074966084 -0.012242689 -0.0051331096 0.00015186708 -0.0072424165 -0.008756465 -0.0022826353 0.0015241434 -0.010537714 -0.0054433364 -0.0009940491 0.0068751085 0.003838644 -0.00010989205 -0.0054884152 -0.008233312 -0.0021001506 0.010151554 0.0057970677 -0.0034166256 0.0003655183 -0.012698173 -0.0009859758 -0.007081348 0.0055588437 -0.002380624 -0.0025169947 -0.010465669 -0.0023046716 -0.008387987 0.00014105825 -0.0032935871 -0.0008119359 -0.004392248 -0.007462212 -0.00088854285 0.0011233969 -0.0026663304 -0.007234711 -0.003218109 -0.010299197 0.0006838708 0.0064959084 -0.0026268864 0.0034992408 0.0040732995 0.0060069757 0.007597265 0.010889415 -0.00741203 -0.010650849 -0.0036482061 -0.009173578 -0.0074924263 -0.005681886 -0.0028749441 0.0038559048 -0.0015743593 -0.008021064 0.0051390408 -0.0012275025 0.0053958516 0.0063289166 0.008869888 -0.0036271492 0.007285314 -0.0070126853 0.0018062962 0.0059076427 0.013066931 -0.0010670995 0.0024888513 -0.0028583766 -0.0004548129 0.008170162 -0.0031359324 0.0021906812 -0.0072689895 -0.007946515 0.007166815 -0.0049668974 0.0041244878
пияз -0.007995592 -0.0009478634 -0.008814427 0.007155492 0.0065272558 0.0007342927 0.009677983 0.004019117 -0.01141772 0.0072371606 -0.0052066133 0.005598873 0.0049513862 -0.00043924426 -0.0072808005 -0.00233064 0.0068444153 -0.009800627 0.00040809053 -0.012944127 0.009173232 -0.0018293638 0.010469394 -0.006231135 -0.010327956 -0.00826245 -0.005210908 0.0027595847 -0.002067144 0.009144217 0.005274989 0.004349337 0.00528743 0.006406558 -0.0041469755 0.010686971 -0.009184718 0.0006796664 -0.001510146 -0.0029796646 0.007367658 -0.0056624077 -0.0026656177 -0.00019174362 0.002213408 -0.00481294 0.0050147003 -0.007946607 0.010019997 0.0006006905 0.0043642223 0.0020271612 0.000705736 0.0021396442 -0.0038766146 0.0062458636 0.00072619 -0.0031109424 -0.010142924 -0.008398369 0.001088896 -0.0051927674 -0.0010340925 -0.0053137033 -0.011375364 0.0035597775 0.007351311 0.00019214196 -0.010259145 0.006931164 -0.0024620576 -0.004912572 0.0012374503 -0.00068166584 -0.00031460632 -0.0084224045 0.008684987 0.003949812 -0.0048934366 0.008296284 -0.0004731475 0.008316393 -0.0049718674 0.011649084 -0.0020849004 -0.006049859 -0.00331495 0.01314647 0.0031180854 0.00078866974 0.011597101 -0.004331465 -0.0020626679 -0.007417248 -0.002727713 -0.0063445484 0.005620083 0.00065202656 0.0064944755 0.0013633516
өте 0.0005487135 0.007711623 -0.0031130384 0.0029267843 0.008802076 -0.0061406647 0.008276283 0.0005083411 0.003377077 0.0019331486 0.004822591 -0.013461234 -0.0016286495 0.0040416108 -0.005075766 -0.008081435 0.00714598 -0.01137942 -0.006531587 0.00088523206 -0.0061933156 0.009841685 0.0025633918 0.0037693973 -0.0035617829 -0.004466908 -0.010621767 -0.0035910301 -0.007720732 -0.0032103427 0.0110695865 -0.006621014 -0.0030570913 -0.007820603 -0.008825801 -0.0041092513 -0.00026539373 0.0063461717 0.0061893603 -0.010154642 -0.007440158 -0.006386195 -0.009977634 -0.0053667403 -0.0019351317 0.0014379406 -0.009261633 -0.0005013399 0.005302908 0.006870273 0.00066087744 -0.011149335 0.0061288234 -0.0055803796 0.0039111474 0.004228158 0.009630069 0.00194179 -0.0041704667 0.009052948 -0.0061266087 -0.007820732 0.004244194 -0.004486168 -0.008417782 0.0011526265 -0.007684434 0.004244424 -0.0054183216 0.0026785817 -0.00039264798 0.005529592 0.009707022 -0.007824798 -0.00064862147 -0.0067811874 -0.007323894 -0.0036249252 -0.004889428 -0.0066337846 -0.006977593 -0.00032693893 0.0017404722 0.00755969 0.0052740355 -0.008364823 -0.002524063 0.004468166 0.012501406 0.000455019 0.0063820793 0.004159969 0.0027062816 -0.008317801 0.009062591 0.008988202 0.008044986 0.0015722904 -0.007117475 -0.005760853
қышқыл 0.0074017765 0.00067205104 -0.010218579 0.0045790714 -0.0056598242 0.0020709925 0.006582754 -0.00018506293 0.000602323 0.003665001 -0.0037041642 -0.003923799 0.008431703 0.009880779 -0.009190497 0.006858199 0.010569161 -0.0056754975 0.001398638 -0.007924426 0.009106621 0.0006446078 0.006957945 0.008748004 0.0035835416 -0.0065456214 -0.0031151215 -0.0007714084 0.00032461496 0.0027932944 0.011538683 0.005007418 0.012107903 -0.0102574425 -0.007374939 0.005094589 0.004208604 -0.0032613643 -0.008027988 -0.006414482 -0.008026849 0.006642952 0.0032261421 -0.00788825 0.0057094353 0.0030995815 -0.007045541 -0.0072133243 0.0032736138 0.009868803 -0.007898366 -0.001364493 -0.006004389 -0.00041312253 0.0022889592 -0.0033866768 -0.0021859333 0.00089679944 -0.007739026 0.009038327 0.004974354 -0.008230974 -0.0020106924 0.0021908302 -0.011184748 -0.004704979 -0.007198169 -0.0030612946 0.005996699 0.010813161 0.000863556 -0.008002135 0.008128621 0.004601204 0.0029612095 -0.007539572 -0.00087733695 0.00026945904 -0.01009794 0.0032790126 -0.0006884503 -0.005760809 -0.011705708 0.010291883 -0.010485269 -0.005447638 0.0070642973 0.0030278193 -0.0007116376 -0.005499338 0.0020242368 0.007133371 -0.0061945776 -0.0041902293 -0.0009313824 -0.0024467157 -0.0063640564 -0.01183938 0.008247648 0.0067682583
банан -0.00554229 -0.007675986 -0.0025954316 -0.0039516278 0.00964769 -0.0026558652 -0.0039895526 0.002847451 -0.012429235 -0.00050775934 -0.0041853795 -0.0059456364 0.0041211857 0.00845266 0.0047458108 -0.0077865347 0.0076006777 -0.01338243 -0.008386051 -0.0143540865 -0.0015937007 0.0015794822 -0.0021374112 0.0010588174 0.008540856 0.0073505756 -0.0025457642 0.0067909593 -0.00081960764 -0.0022522914 -0.0037653563 0.007209798 -0.0063848062 -0.004186847 0.005585201 0.0014381242 0.0021868714 -0.010257026 0.0036783803 0.00297407 -0.008698452 -0.0067983065 0.0073591596 0.002812744 0.0034526805 -0.001215302 -0.011658921 0.008418051 0.0007193171 -0.0036102112 0.005062814 -0.0005757402 -0.004796205 0.0060402853 -0.0035116123 -0.0041910904 0.007981583 0.006887906 0.0068553453 0.0032400137 0.0012643023 -0.007464107 0.004909586 0.007887078 -0.004305204 0.0011099192 -0.002043315 0.002890911 -0.011414253 0.010407503 -0.00089551037 0.010157311 -0.0034392024 -0.0050938567 -0.0025538101 -0.0054845084 0.0040172297 0.004995468 -0.0016737551 0.004676591 -0.010843278 0.000526268 -0.011882888 0.008333582 -0.005362017 0.009016133 -0.001429257 0.011247993 0.007337862 0.0008749049 0.0040716403 0.010626396 0.0023131089 0.009164834 0.008384897 0.008491928 0.007191866 -0.010304802 -0.004698284 -0.00031722966
асқабақ -0.0012867905 0.004172286 4.1757805e-05 0.007316851 -0.003931675 -0.0057489015 0.009032169 0.008927997 0.0012140544 0.0018122102 -0.0015277227 -0.011692446 0.0021160075 -0.008102925 -0.0020457336 -0.010492536 0.000540627 -0.0117909135 0.006108499 -0.011930178 0.010695112 -0.00805037 -0.002679525 0.0009599145 -0.004010212 0.0021941036 -0.005275373 -0.0035424982 -0.00831138 -0.010049793 0.0093732225 0.0012465008 0.009555086 -0.00995343 0.0015749758 -0.0056615523 0.008243845 0.0031630038 -0.0075639463 0.0036477786 -0.0047993334 -0.012662799 0.000759864 0.0030654743 -0.004566875 -0.010632561 0.007144872 -0.00017374275 0.0037668159 0.0036294146 -0.0011048457 5.1836854e-05 0.0031923498 0.010358055 -0.006485059 0.004541607 0.0071314797 -0.006146764 -0.011051826 0.011279409 0.007770866 -0.0034782137 0.006106047 -0.00075191393 -0.008987573 0.0019725424 -0.0030086949 0.009690449 -0.002041592 -0.003148747 -0.0031320348 -0.0019155343 0.01000496 -0.0010915238 0.0117363045 0.003963213 -0.002123525 0.0083862245 -0.00039639967 -0.0027002303 -0.007090376 -0.0013908305 -0.00941807 0.009245186 -0.012268473 -0.005895106 0.005348824 0.0050306856 0.009497889 -0.004204878 0.004392191 0.0052295323 0.0053208726 0.0027569304 0.015354492 0.0069049066 -0.004801139 -0.004260245 -0.0072710533 -0.0068791104
жеміс -0.004007749 -0.0077083157 0.008247732 0.0017687528 -0.000667024 -0.012138539 -0.006783261 -0.0029658235 0.005671415 -0.0050818613 0.004378349 -0.008112576 0.00901074 0.0045882766 0.002044336 -0.005322606 0.0020342155 -0.007095432 0.006125481 -0.0027659119 0.0018242338 0.004619434 0.005691727 -0.007905825 0.008121625 0.0026263474 -0.00730442 0.005735115 -0.0040018517 0.007973312 0.0017090972 0.007871913 0.0059833517 -0.006773334 -0.005862446 0.013808003 0.0022877927 -0.009125891 -0.0010844802 -0.0067592496 0.0023878943 -0.01222048 0.00652027 0.0013539541 0.011865242 0.0025637907 -0.006154874 0.0019093276 0.0026693556 -0.008390776 0.011175381 0.008143252 0.011145429 -0.0032817158 -0.009590348 0.0073233703 -0.0070038433 0.009363832 0.00034690253 0.008337168 0.007249825 0.0008941465 -0.0019987356 -0.0010098902 0.005962435 -0.003653626 0.0005456964 0.0015269624 0.0007972148 0.012148107 -0.0070073497 0.004342023 -0.0007973698 0.0035016385 0.012366699 0.00592911 -0.002921804 -0.0027924953 0.0045346925 0.011010402 0.0039507914 -0.0016020706 -0.0068683582 -0.00019060662 -0.0073230932 0.0032506257 -0.004478126 -0.0014681296 0.012052052 0.0091449665 0.013141288 0.004301267 -0.00936012 -0.006292501 0.007503302 -0.0059841843 -0.004773992 -0.001040469 -0.002018409 -0.011200668
ағаш 0.0045472635 -0.0067397887 -0.008476895 -0.0021123565 0.0022417714 -0.0084594805 -0.0030016995 0.014541284 0.0051764175 -0.0102044325 0.009652155 0.003415124 -0.0088239955 -0.0009098167 0.0054806415 0.0056150816 -0.0027563716 -0.012024496 0.0032865673 -0.017035078 -0.005006721 0.00015585037 0.00771359 -0.0064852773 0.0039280946 0.00081643043 0.0010675824 0.0032878788 -0.0013768864 0.007412793 0.0030967304 -0.0072305957 0.012722458 -0.0075069605 0.002449668 0.0014125584 -0.0064658993 -0.00994371 0.0027729182 -0.005948655 0.002275105 -0.014042377 -0.006136514 -0.0060946885 0.012962069 -0.010533081 0.0031115331 -0.0028780084 0.0034954152 0.01071208 -0.00050065207 -0.008686332 0.0022579897 0.008205033 0.00778422 -0.0011440064 0.0038197758 0.00568753 -0.007838371 0.009814485 -0.005443846 0.0026716513 0.0048909886 0.002458207 -0.009194605 0.0062431525 0.009567087 0.013018877 -0.014127241 0.01185147 0.0017602512 -0.0007655989 0.013082238 -0.0041706995 0.0030685354 -0.0042963265 -0.0019601588 0.00049531576 -0.0070752115 -0.0038643586 0.004812983 -0.003443924 -0.011530442 0.014434069 0.0064635347 0.004083954 0.0024544052 0.006667066 0.0033037635 0.006271813 -0.0009715812 0.003482227 0.0039176717 -0.00071031 0.007398825 0.0076430207 0.012696744 -0.000936544 0.010633702 -0.0077162986
және 0.0034064313 -0.0019677582 -0.0053924634 0.0007832165 -0.0036125784 -0.011607535 0.0049347295 0.014810893 -0.009500759 -0.011470935 -0.003533615 0.0044881455 -0.010768446 0.010327041 0.00025706168 0.0009986534 -0.0010559409 -0.00972056 0.0018765299 -0.00038670938 -0.0063318973 -0.00022227861 0.003295069 0.0036305953 0.006393361 -0.0029303455 0.005926297 -0.008248905 -0.004656554 0.0089028245 0.008342627 -0.0077652545 0.0013137063 -0.0112136565 -0.0036232627 0.010006874 -0.0070004477 0.0026346429 0.004666118 -0.008320732 -0.009196323 -0.0064559374 -0.003025752 0.0036478308 0.012554168 0.0005207406 -0.0037394008 0.0013815927 -0.0041892854 0.00021040808 0.0010708206 0.008083751 -0.0047244444 -0.0067903604 0.001241983 0.00450652 -0.0064388267 -0.005430362 -0.0034862324 -0.0010881746 -0.0080046775 -0.0036027865 -0.0025476404 0.004783587 -0.0027600217 0.004549585 0.0022639253 0.00015020368 -0.00070774846 0.0057380865 0.0033373649 -6.393529e-05 -0.005982139 0.001021515 0.013947726 -0.0033333611 -0.0037513773 -0.0022696732 0.0055232076 0.00039316178 0.00805296 -0.0065348633 0.004584139 -0.004383813 0.0066213883 0.0018718748 0.0047778073 -0.0011472978 0.01170225 0.005713598 -0.0014514911 -0.0071921605 0.006899801 -0.0045911656 -0.0041403575 0.0057254736 -0.0025254488 -0.010069519 0.010548105 -0.003343134
лимон -0.0027416549 -0.0025630197 -0.0052794334 -0.0050311587 -0.0051828553 -0.010490289 -0.0065327785 0.014872872 0.0038694756 -0.0057166116 0.0022302808 -0.010337574 0.006520781 0.009036892 0.0013664335 -0.007994241 -0.0024359587 0.0014175994 -0.0039343117 -0.0026308019 0.009936646 0.0052285157 -0.0037481626 0.0047829365 -0.0036281853 -0.0058525107 0.005930706 -0.0116256885 -0.0031968937 -0.0015480595 -0.00598176 -0.00053573854 0.008271873 -0.0071774716 -0.008599902 0.009913293 -0.0029354454 -0.010063204 -0.0010606755 -0.0038684972 0.008247458 -0.0028066358 0.007311491 -0.010008141 0.0070844837 0.004831247 -0.00045899165 -0.004337161 0.003571338 0.0003013548 -0.006145139 -0.008182518 0.0022920894 -0.001636986 0.008812577 0.0011913462 0.0066953944 0.0025661022 0.0063117607 -0.0072705 0.0031779665 -0.0012354078 0.0025311091 -0.0015511771 -0.00985659 0.011609948 -0.0013418916 0.0047579105 -0.009844403 0.008162674 0.0076839873 -0.0005282555 0.009292362 3.280111e-05 0.01144026 0.011384918 0.0009165265 -0.0015581764 -0.01218433 0.01099836 -0.0037913756 0.0037111393 -0.005657862 0.013150545 0.0060736276 0.0014569572 0.004644929 0.010551787 0.005192989 0.006227911 0.0036620712 -6.914538e-05 0.0049588885 -0.0025909508 0.0017220589 0.011464797 -0.007165774 -0.0058132885 -0.0022474807 0.00433084
жасайды 0.0063598375 -0.0042659407 0.004632083 -0.00064360147 -0.00869969 -0.009922598 0.0008385564 0.0036488299 -0.0042602746 -0.00815095 0.00563154 0.0056669516 -0.002972468 0.004209622 0.0004070841 -0.0022013988 -0.005992596 -0.0033227657 0.002225921 -0.0011817411 0.007671641 0.0050699497 0.006560889 -0.008405148 -0.0026315667 -0.0047810846 0.004988857 0.004740279 -0.0071427985 0.0012196471 0.008746422 0.003066655 0.0042675473 -0.009633153 0.0075300434 -0.0018368277 -0.0053276317 -0.009179002 -0.008470899 -0.008721592 -0.008433844 -0.0036150608 -0.0044873017 -0.002672016 0.01038196 0.0015044127 -0.00011944773 -0.0034148698 0.013516409 0.001872494 0.008164632 0.0071343295 -0.008497514 -0.008737083 0.008595689 0.005388654 -0.0008604155 0.0054851407 -0.006705375 -0.0033421232 -0.0070915837 0.007843963 -0.0019389844 -0.0097631505 -0.010399773 0.010084784 -0.00023099303 -0.0020418386 -0.006786855 0.0046141203 -0.0066855997 -0.0012190914 0.007979914 0.0014503581 0.0014282445 0.0050563887 0.0070853964 -0.00888704 -0.011586463 0.007719332 -0.010861059 0.0026451815 -0.0145318005 0.01507975 -0.0076508266 -0.006790301 0.0012554299 0.004852478 0.011839164 0.008554908 0.0051173633 0.005732366 0.0043620723 0.001395488 0.00073553436 0.0031667398 0.005381331 0.0048698178 -0.0023717792 -0.0118749775
жатыр 0.004064055 0.011587232 -0.007905268 -0.00096127944 -0.004615817 0.0010878327 0.011435473 0.005391611 0.0025753367 0.0044304077 0.004051118 -0.010920435 0.0021650256 -0.0005941158 -0.0018054249 0.0044018356 -0.0005492575 0.0064061335 -0.0019703517 -0.006188844 -0.0017417729 -0.007465673 -0.008112341 0.004221572 -0.0074175866 0.0035548026 0.0012729769 -0.009311893 -0.0055051018 -0.00588802 -0.0058238953 0.0006553534 0.012550541 -0.009023469 -0.0064769583 0.012169597 0.009811902 0.007118761 -0.011176415 0.0009117021 -0.006164278 0.00339318 0.005610866 -0.0033759864 0.010076161 -0.009595817 0.0028457819 0.0029210043 0.008618086 0.00720974 -0.0005571473 0.002227514 -0.0049440702 -0.006052936 0.0018135635 -0.007580174 0.00043852584 0.0012544695 0.006215472 -0.0050470624 -0.0015753848 -0.0036394247 -0.005016572 -0.0017263687 0.0010592302 -0.0019192651 -5.9973903e-05 0.011933466 -0.0049449974 0.0011124894 0.0048610074 0.0023100774 0.0026408625 0.009604519 0.011607993 0.0050517167 0.0047119656 -0.002038027 0.0053525963 0.0060803746 -0.006670729 -0.004685439 -0.0047175954 -0.0026993367 0.00082544284 -0.009271348 0.00031866838 0.007649691 0.005874425 0.0028695774 -0.0052634617 0.0058137923 0.0051831254 0.00418784 0.012606465 0.0045984588 0.008315298 0.00635324 8.084302e-05 -0.002187079
сарымсақ 0.0013073176 -0.006395369 0.005032515 -0.005117742 -0.0028569323 -0.0058597713 0.009701005 0.0064629707 -0.0027817711 -0.0044501084 -0.0022837203 -0.0034841099 -0.005690217 -0.003496061 0.0003572366 0.0037548388 0.002480884 0.004328611 -0.00035124717 -0.0076982738 -0.007101796 0.0067619137 0.008081201 -0.006628522 0.0042467057 0.009829859 -0.0073583187 -0.004688419 -0.010689014 0.003067904 -0.0012999618 0.002521563 0.011329202 -0.009828897 -0.010853523 0.004420265 -0.007682056 -0.011118426 -0.010038783 -0.0033925714 -0.0005808479 -0.0018671524 -0.0016394746 0.009043319 0.01109517 -0.007418601 0.0075781196 -0.010292039 0.0005973502 0.0033870926 0.0015319192 -0.0048963116 0.0012939733 0.0013290077 -0.010052777 -0.0034779927 -0.007150809 0.0040648673 -0.002262004 -0.006096969 0.006167128 0.00047527652 0.0029317702 0.004454975 -0.006921518 0.010003074 -0.0067056073 -0.0012030835 -0.01013191 0.004203587 -0.009051532 0.009734511 0.007746609 -0.0071511297 0.008714991 0.007828967 -0.0065027107 0.0047951164 -0.009974709 0.010108345 0.003851871 0.00092257524 -0.0118783 0.0027589859 -0.0020405406 0.00092659576 0.00981909 0.00027129822 -0.00660795 -0.0091558825 0.0017367384 0.0032024854 5.6372293e-05 -0.0014505198 0.011972174 0.0021197465 0.007923616 0.0022178984 -0.00641312 -0.0032273023
үлкен -0.008849189 -0.005598165 -0.0039671855 0.006219498 -0.00050196797 0.0044255853 -0.0009421271 -0.00070369145 0.0018314066 0.0005952348 -0.00051845517 -0.0046274937 -0.006802448 0.004657592 -0.007031922 -0.009756467 -0.0086506605 0.005605324 0.0030559953 0.0022143072 0.010422244 -0.006445046 0.0053729964 0.0022144795 0.005616868 -0.0028097657 0.008185701 -0.0075888443 0.0053146696 0.006772805 0.0018318567 0.0055949553 0.008734284 -0.00012733445 0.0060224542 0.0054840227 -0.0012054532 0.0053343484 0.0036566947 -0.00629416 0.0022123542 -0.0031450226 0.0045230146 -0.005486199 -0.0015454825 -0.002214454 0.0025734517 -0.00783322 0.009999703 -0.0020714873 0.007626202 0.0016539263 0.0077927774 -0.0041224314 -0.0038739748 0.0045931996 -0.0021898143 0.0064054327 -0.0073715304 0.0043671513 -0.00010760361 -0.00038944112 0.0026914394 -0.0032671192 -0.006941537 -0.0061127753 0.0037653332 0.007885316 -0.008767486 0.012872749 0.001948687 -0.0045424392 0.0011278094 0.004067064 -0.004183059 0.003509925 0.006608784 0.0064909174 0.0032836657 0.004520135 -0.0038717133 -0.004948716 0.00499496 -0.0031617023 -0.003544582 -0.0032953199 0.007864939 -0.0028538974 0.005690003 0.0017608593 -0.0010379655 -0.006472449 -0.008112143 0.004239785 -0.0057232366 0.007927807 -0.0012772463 -0.011024645 -0.004402697 0.0066600833
анар -0.0034843117 0.008538644 -0.010421197 -0.009767844 -0.0045582238 -0.0056973225 -0.0052705756 -0.0023791315 -0.011874861 -0.0030928457 0.0070831035 -0.012010943 -0.006592118 0.0023482565 0.0039939405 -0.0097530475 0.008665041 -0.01258841 0.0034833306 0.0021938926 0.0062950393 0.0073024197 0.010167267 0.0024817118 -0.008053691 0.006617089 -0.009991434 -0.008558252 0.0033336554 -0.008073848 -0.0027857644 -0.0027356746 0.006520576 0.0029673018 -0.00021707565 0.00983077 -0.0021580118 0.0012653082 -0.008472367 -0.006431492 -0.006925202 -0.004386671 0.0038549816 0.004652801 -0.00077938853 2.956474e-06 0.006002179 -0.007523368 -0.0007556855 0.0008485168 -0.0020235528 0.0071211555 0.00898804 0.009774009 0.00830077 -0.006013224 0.00046659383 -0.0071213497 -0.007056306 -0.006314062 0.0043882146 0.00054960797 -0.0067491475 0.006345966 -0.002984975 0.0037347677 -0.0016430774 0.00016752991 -0.0067523695 0.013202108 -0.0006776768 -0.0043299426 0.008108381 0.0012280416 0.0014794483 0.0098171085 -0.0023747096 0.0076106824 -0.007482964 -0.005917988 -0.0061332164 -0.0019892869 -0.0052653495 0.0039344844 0.0022781813 0.0054709124 0.00054088514 0.008773031 0.0015949135 0.00023636971 0.0032550856 0.00019678069 -0.0049414984 -0.0033546959 0.00575778 0.0050626458 -0.0069854497 0.0033494923 -0.00083849113 -0.0047705676
баклажан -0.0059201815 -0.0029236984 -0.005400033 -0.009989005 -0.0004352902 -0.012709307 -0.0033062983 -0.002316513 0.007670618 -0.0033147426 -0.008094423 0.0029479172 -0.008701108 -0.0011941603 0.002821113 -0.0080531575 -0.007949419 -0.009749782 0.0062708203 0.0035715313 0.004575331 0.0034734686 0.005552879 -0.0047035934 0.009198469 0.0076668584 0.0028662386 0.006910853 -0.010483134 0.0007516936 0.011244422 -0.00028898046 -0.004387375 -0.0041684834 -0.0046162154 0.00078514917 -0.0013780402 0.004649453 -0.0014227994 0.0006033589 -0.0030326853 0.0051928815 -0.007027557 -0.009479018 -0.0014198258 -0.008711499 -0.006357815 -0.0010361179 0.0046924655 0.0026544945 0.0070502292 -0.0027810296 0.003268516 0.0007439564 0.007163636 0.009736113 -0.0014814024 0.0015410527 -0.007726624 -0.0030040066 -0.006471151 0.00035965847 -0.004845965 -0.0051640756 -0.0016627783 0.005389145 -0.0077396077 0.0045555863 0.0018281027 0.008355637 -0.005146197 0.010411594 0.012231692 -1.5610787e-05 0.0038190305 -0.0077028894 -0.0038420113 9.794948e-05 0.0015436726 0.0011880248 -0.010061265 0.0073588034 -0.010893722 0.013072034 0.0032318507 -0.0070026508 0.004346512 0.011449043 -0.0037133018 -0.0068726353 0.012713923 0.0040764604 0.0096119 -0.009077645 0.0028021026 0.009352255 0.00035391108 -0.0038561297 -0.0062996577 -0.0069435295
жұмсақ -0.007864268 0.010557396 -0.0024339925 -0.008557682 0.008571301 -0.008600061 0.0004964605 0.005420684 -5.9957078e-05 -0.0070406324 -0.00043571452 -0.00597041 0.0077638547 0.007777023 0.0015779642 -0.0071763424 0.003968257 -0.0024729364 -0.007422474 -0.012280638 -0.0026048326 0.0033952084 -0.0065917955 -0.005736435 0.0073528076 -0.0029819664 0.006571433 -0.0019167202 -0.008078838 -0.0053455485 0.0027318897 0.0055028033 -0.0032997655 -0.007662836 -0.009054646 0.010820416 -0.001825638 0.0011692994 -0.0030443983 -0.011993072 -0.0006186486 -0.0033169596 0.003040343 -0.008794942 -0.0035120244 -0.008227413 0.0014394423 -0.005483076 0.0036184439 0.0053820503 0.0067240037 0.0008935051 -0.0017785811 0.0011160427 -0.0064446344 -0.00451539 0.009374313 -0.003701889 -0.011171984 0.0058291615 0.009367203 0.00011504762 0.0025620807 -0.0051378184 -0.007894127 -0.0057840883 -0.006105632 -0.0058559035 -0.009828931 0.01339824 0.00697909 -0.00072053494 0.0031208992 0.007938984 0.005040954 -0.0031898166 0.0038107394 0.0020669852 -0.006790361 -0.0038572727 0.008369421 0.009325619 -0.012757877 -0.0003176693 -0.0012078587 0.00091689377 -0.00655616 0.01387504 -0.0023111731 0.0043087904 0.013246418 0.003598194 0.0040058363 -0.0019249859 -0.0047733947 0.003674703 0.0010987164 -0.012486348 0.008239796 -0.0090373475
жеңіз 0.0040027737 -0.0029410345 -0.009966366 -0.009278406 0.006773681 -0.010034125 0.006832502 0.0033653837 0.007595779 0.0053517157 0.009612524 0.0059454516 -0.008560614 -0.008858142 -0.005376898 -0.0015249627 0.0057737567 0.00083793566 -0.0029926174 -0.00048596505 -0.0030795294 -0.0059729638 0.0061549265 -0.010865374 0.00031831238 -0.004490741 0.0062144245 -0.00563987 0.00086271565 -0.0065166587 0.012150644 -0.005008143 0.0058617513 0.0015063767 0.0071683824 -0.0021344079 -0.004290786 -0.008649698 0.0052363127 -0.008359523 0.0055555394 -0.004188117 0.006901266 -0.005890405 0.0027467115 -0.0012247455 -0.010229542 0.007191073 6.0615137e-05 0.007542694 0.0020369128 0.0036319525 0.0033559029 0.009125602 -0.009230033 0.0103147095 0.009170557 0.0012271352 0.0025525682 0.0054523316 0.0045975028 -0.0026494798 0.0029565021 -0.00034086185 0.0016246946 0.011273865 -0.0063934517 0.0028473132 -0.012060606 0.0024064376 -0.0114451805 0.0041129217 0.0011208326 -0.00031951533 0.009632581 -0.00683422 0.0021529654 -0.0021629785 -0.006099871 -0.0063441843 -0.009051709 0.009612867 -0.010930132 0.009204414 -0.005904655 -0.0014334862 0.0044915793 -0.0050775767 -0.003340255 -0.008127818 -0.0062106806 -0.002659383 -0.0030741033 0.0012779884 0.0034638399 -0.0053632976 -0.0020995461 -0.0048147338 -0.0056377333 -0.0075535467
піседі -0.0040292153 -0.006072194 -0.009281492 -0.007860416 0.003978942 -0.013106901 -0.0020729145 0.012612428 0.00481325 -0.008671094 0.006618164 -0.010874474 -0.00084629277 0.007490935 -0.0022246551 0.008222196 0.0003732604 0.0009893848 0.0057661273 -0.014896437 -0.0057366197 -0.0062682736 0.00041373388 -0.007862343 -0.000880558 -0.007380503 -0.0010601361 -0.002788661 0.00428041 -0.009149962 -0.00051633373 0.006537291 0.011822378 -0.003929941 -0.0012568784 -0.002200548 0.0014217636 -0.010661886 -0.008965565 -0.0027804205 0.00061164674 0.002008237 -0.010406407 0.0014888595 0.0048667314 -0.006604852 -0.0018661581 0.004627019 -0.0038463154 0.0014509904 0.006110952 -1.2430091e-06 0.003934423 0.008617299 0.005999372 0.0056786938 0.008795069 -0.0073266183 0.0056036087 0.0059486297 -0.0051086913 -0.0037313418 0.006686323 0.0043813316 -0.01347294 0.004078248 0.0011904732 0.0040807007 0.0032569035 -0.0025722682 0.007352861 -0.008531671 0.009250535 0.009547777 -0.00015622511 -0.007831896 0.0076059643 -0.00866365 -0.011325922 0.00012905967 -0.008029422 0.010325109 0.0037399207 0.0060411436 0.005595008 0.009883576 0.00706615 0.008565053 0.008412668 0.006026997 0.008657641 0.008746436 -0.007664136 0.009921765 0.013293441 0.012313124 -0.00702122 -0.006057653 0.00059956376 0.0025985376
бұрыш -0.009232402 0.0013910813 0.0053509753 0.009308808 -0.0023969065 -0.0023746425 0.0075579127 0.0023736046 -8.775158e-05 -0.010992994 0.00034278107 0.00244206 0.0038239094 -0.008996092 -0.0048122695 0.002098688 0.0020919023 -0.0073607443 0.004948749 -0.0010803537 -0.007373219 0.010640238 -0.006689487 -0.0035391299 0.009231783 0.001621507 -0.006696257 -0.00051096897 -0.005742471 -0.0070346617 -0.005655613 0.00536362 -0.0071294582 0.0024849204 -0.006893795 0.008326101 -0.004074223 -0.0076387823 0.005428679 -0.011793522 0.0019763578 -0.004835395 -0.0071326494 -0.0076369583 0.009344636 -0.005701555 0.0032567615 -0.011115986 0.003951606 -0.0009481455 -0.0042817574 -0.003855874 -0.007724347 -0.0032777716 -0.0032270167 -0.0008214624 -0.0046000546 -0.008877841 0.0039379178 0.0003103527 0.0068131564 0.0033249564 0.008741916 -0.00465665 -0.011611595 0.0036485817 -0.00773188 0.008227833 0.0056745578 0.0041663283 0.0057686423 0.009252642 0.006381912 0.0055828295 0.011935424 0.0023724008 -0.007258709 -0.008289509 -0.003930699 0.00027110564 0.007828981 -0.008168673 -0.005532423 0.012922806 -0.0033265562 -0.009123821 0.0033808795 -0.0026954731 -0.0032661364 -0.006609341 0.0030016422 0.008926466 0.0040914644 0.008757499 0.012356006 0.00664381 -0.004551289 0.005159922 -0.008882049 -0.005648965
киви 0.0071843206 0.009142386 -0.0061892895 -0.008219445 0.008434326 -0.008033376 -0.0028192012 0.011567574 0.0034040245 0.0022369523 -0.0015580312 0.0065513197 0.0077697337 0.0076079024 0.009304262 -0.0065339752 0.0017281416 -0.004213739 0.005333462 0.0048741205 0.0057561737 0.0049149916 0.0076944586 0.005560941 -0.0006090514 -0.007903173 -0.0032752035 0.007293327 -0.0068425545 0.00097067666 0.0070054834 -0.0063281544 0.01036649 -0.0002468326 0.000887654 0.011321954 0.0018887515 -0.001111041 -0.010284521 0.006768446 -0.00940125 0.0059549715 0.0046206545 -0.0001604764 -0.005464937 0.008201153 -0.002567143 0.004044579 -0.0010770423 -0.0039992672 0.0016510291 -0.009309362 -0.0057828054 -0.00905277 0.004820859 0.0018005031 -0.00047101115 0.005336057 -0.0033548747 -0.00576587 0.0034620098 -0.0056932643 0.0006771939 0.008581769 -0.0036299129 0.008348304 0.0057143536 -0.001286349 -0.007948783 0.012456344 0.00041633964 0.00015283373 0.0031543232 -0.00498699 0.006245889 -0.001755276 0.0051390394 -0.004348044 -0.002882707 0.00450274 -0.008074431 -0.0014549155 -0.0117786005 0.005405173 8.1167105e-05 0.0023056183 0.0024453665 0.0034082818 0.004451734 -0.0012020712 0.008965544 -0.0011970999 -0.0052079996 -0.004751722 -0.0062156618 -0.0061817113 0.0036737064 0.0020638858 -0.0050084833 -0.010768436
түсті -0.007250197 0.006327909 -0.009914434 0.0048753596 0.0068413997 0.00092112226 -0.0060615693 0.008347479 -0.0077395523 0.0069314633 -0.004456798 -0.005088663 0.004404267 -1.4047623e-05 0.005496548 -0.0050050355 0.0056844084 -0.013157571 0.005058326 -0.007047601 -0.0051030386 0.001026617 0.00032462145 -0.0014125535 -0.0022443216 -0.008648612 -0.009173443 -0.009010687 -0.010581539 -0.0046655424 0.011539391 -0.0013513285 -0.0049370206 -0.0077129747 0.0016944876 0.0009717356 -0.0011818694 -0.006833511 0.004914119 -0.011768432 -0.006965692 0.004070414 -0.0074830386 0.0022435342 0.003314009 0.008338646 0.0025711616 0.00050945877 0.005068894 0.0034829758 0.00428085 -0.004182739 0.005050918 0.006566254 0.008099032 0.001181285 -0.0004943038 0.0067410236 -0.01032138 0.0013050977 -0.0061886474 0.0053149704 -0.008921932 0.0021013462 0.005710053 0.0008053464 -0.0073680873 -0.005271194 -4.2032138e-05 -0.001021708 0.0040644133 -0.0004672555 0.0106247505 -0.00039046624 -0.0029064028 -0.0041671763 0.0019008329 -0.0046695704 0.003903557 -0.0023971654 -0.006810808 0.0025468352 -0.008588343 -0.0034939898 -0.007579552 -0.0018079734 0.0021017876 0.0076280762 0.009596637 0.006286002 0.009472201 0.0025116426 -0.0061123017 0.009840454 0.003779907 0.007481048 0.00044131183 0.0034930084 0.006150677 -0.008779728
жеймін -0.0042244983 0.0019938038 0.0008641539 -0.009672358 0.005184922 -0.0022779072 0.0014848168 0.0026344194 -0.010287427 0.005497511 -0.00894967 -0.010450315 0.0035451048 -0.0077824015 -0.0025676738 -0.0030392134 -0.0010482863 -0.010501123 0.003060788 -0.0053771865 0.004345196 -0.00036749977 0.008775084 -0.010293123 0.0049019973 -0.004317202 0.00029710314 -0.00961598 -0.00474745 -0.0066928756 -0.0005888016 0.01041436 0.005493883 -0.00043618164 -0.007986426 0.009612871 -0.0077480595 -0.0049116523 -0.007953637 -0.0105517525 0.0030272584 -0.0071217916 0.0016431765 0.003828586 -0.0030775578 -0.003354836 -0.0046284036 -0.011427461 -0.0070648724 0.0021950838 0.006653423 -0.0012385696 -0.0037133794 0.0042394297 0.00077242305 -0.0075661 0.007997366 0.008052587 -0.009694046 0.0014135707 0.006962557 -0.0023466581 -0.00012049049 -0.005517147 0.002542499 0.010275963 0.0037794805 -0.0015647254 -0.005447977 0.0007260423 -0.012451708 0.008589712 0.0023453427 -0.0004224215 0.0105717955 -0.007096288 0.007853302 -0.0073677064 -0.008160831 0.0062030093 -0.0048751873 -0.0019038016 -0.010347638 0.0011749265 -0.0052860635 -0.004192124 0.01143498 0.013804597 0.0026223464 -0.00080406986 -0.0016739473 0.010339309 -0.005094068 0.0067688725 0.014202101 0.008670725 0.0012784167 0.0030689454 0.007795678 -0.005541898
әдемі -0.0008017174 0.008104677 0.005194003 -0.00011545522 0.0030466442 -0.0128159365 -0.007523945 0.002052388 -0.008519302 -0.0017845035 -0.0042628837 -0.0036240234 0.0066604726 0.01084911 0.008381657 0.0010265022 -0.0020673356 -0.0019795347 -0.0039515905 -0.016016105 0.007818206 -0.0074117044 0.0052979914 -0.004886793 -0.0061622444 -0.0005109169 -0.008276903 0.0058902046 -0.009649814 -0.0091484925 0.009067143 0.00545654 0.0081312945 -4.6860096e-05 -0.0059284074 -0.00050024886 0.0023767014 0.0053100493 -0.007318598 -0.007477358 0.002271568 0.0025877417 -0.0069290376 -0.004614293 0.0014428544 -0.00015965826 0.0035886492 0.0038670711 -0.0058395485 0.009349054 0.00015448607 -0.0039808913 -0.007864822 -0.005272945 0.008389193 0.0051667984 -0.0075206426 0.0029851096 -0.009777813 -0.006769499 0.0049933842 0.0027908697 0.0016674421 0.0067636087 0.00203874 -0.0020363939 0.004964183 0.0062995786 -0.00177721 0.01381059 -0.009651351 -0.0012346271 0.004373614 0.0062626055 0.0038371603 0.009729986 -0.0028749192 -0.009039456 -0.010555801 -0.0029071334 0.008345265 -0.0034377265 -0.009801399 0.013971757 -0.010376353 0.0021558844 0.007838189 -0.0029634049 0.0032194078 -0.0027347268 0.010038727 -0.002019781 -0.006693293 0.011335468 0.00078158843 0.011388964 -0.006292642 0.004202049 -0.0023283476 -0.009604976
шие -0.0021820422 -0.0008421411 -0.0028640556 -0.001686164 -0.0061022183 -0.008746531 -0.001534094 0.013408921 0.0033778066 -0.0029587892 -0.004941588 0.0024423907 -0.009868334 0.0023669377 0.0047041574 -0.0028656162 -0.0039645876 -0.011409789 -0.009485086 0.001396643 0.0043130876 0.00059370906 0.011420654 -0.009145294 -0.000102873324 0.0002632805 -0.009223813 -0.011397944 0.005253822 -0.0037449605 -0.005416189 0.008473963 -0.0036810618 -0.005309259 -5.7854275e-05 0.0004015799 -0.007419519 -0.0062368857 -0.0102502825 -0.0023235625 -0.004154248 -0.0034293744 0.0021598332 -0.0025047222 0.011677484 0.0055160057 -0.001990934 -0.002021108 0.0033946787 0.0077128806 0.010962561 -0.003592652 -0.0006546845 -0.002605868 -0.00039662115 -0.0047921645 -0.00092349085 -0.008361649 -0.0009293917 0.0034463054 0.0043977895 -0.0025277783 0.0060995133 -0.008093328 0.006897854 0.0032177179 0.0036880337 0.007372296 -0.0030056578 0.0068509057 -0.00081498455 -0.009050058 -0.00058789365 -0.0025039618 -0.0060059675 0.005078171 0.0061797705 -0.0019026573 0.004866749 -0.00016456173 -0.001635144 0.0072742365 -0.012159219 -0.002265663 0.005182606 -0.006639617 0.01022883 0.009535282 -0.005329527 0.00815574 0.009867834 -0.0046151243 -0.008559227 -0.008198705 0.008205906 0.009005603 -0.00017509625 -0.0012521809 -0.0075690947 -0.0065005496
қауын 0.0035620625 -0.0077422676 -0.010052746 0.00067814824 -0.008108155 -0.011639337 0.006243088 0.013012672 -0.009492197 0.0063792677 0.009258985 0.0022215098 -0.0052940985 0.010265248 -0.0071206326 -0.0047536236 0.0025913075 -0.01060074 -0.010865917 -0.0025842576 0.008649716 -0.00416299 -0.0030350173 0.003315596 0.00010238024 -0.0078516705 0.0053782994 -0.0052516656 0.0018105402 0.002904585 0.011295583 0.009277157 0.009628461 -0.009988263 -0.00039878342 0.0023628187 0.0013069314 0.0067696907 0.0037595008 -0.012357015 0.010370915 -0.0040824492 -0.0001436573 0.0049600103 -0.0035405888 -0.0016650131 2.647996e-05 0.005652328 0.0064638015 -0.0009363683 -0.0066114273 -0.0052296487 0.009637967 -0.009092108 0.009118116 0.0015802457 -0.00042621078 0.009971406 0.007970133 0.010326562 0.009586928 -0.009744779 0.0078273015 -0.010582332 -0.010769631 -0.006412258 0.003552083 0.00996817 -0.00942211 0.0012896925 -0.004536583 -0.0038459236 0.0012396318 0.004875316 0.006795201 -0.0018692554 -0.0026789755 -0.0021860572 -0.005846652 0.00481149 0.00853221 0.00916362 -0.010966471 -0.0021407022 -0.011239486 -0.005902151 0.005094077 -0.0022870682 0.0041867713 0.00841117 0.0066807508 0.0031980954 0.008848151 0.0073649897 0.002690818 -0.0036895857 0.0008257993 0.005203759 0.008174738 -0.005337537
жаңа 0.009175989 0.0033682168 0.0046567395 -0.005798967 0.004772413 -0.0034574324 -0.008608373 0.008606058 -0.0106331315 -0.007888892 0.0025711607 0.0076307375 -0.0026791617 0.0078109144 0.005139802 0.0035254841 -0.005607415 0.002853822 -0.009011999 -0.008299895 0.005875434 -0.007342548 0.006754268 -0.004009457 -0.00029976998 -0.007000612 -0.007218428 -0.0044374284 0.0071212486 0.005225035 -0.007908897 -0.006197549 0.004964226 -0.009776962 0.0052462225 0.008648921 -0.008956088 0.006738074 0.0072573186 -0.0045686536 0.0024395294 -0.007945819 0.0057711345 0.0077880076 0.0060881497 -0.0098169865 0.0038657882 -0.0041888272 -0.00036396083 0.006615985 0.0031281437 0.003568072 -0.0054613585 0.00558961 -0.0041308794 0.00096021453 0.006497259 0.0042745713 0.006314039 -0.0026820037 0.0038691638 0.007423961 -0.0031995117 0.0049735853 -0.011655139 0.0109725995 0.0048317094 0.0071894303 0.002287827 0.007594145 -0.004901858 -0.0055516805 -0.00029777945 0.001496803 -0.0007596905 -0.007490664 -0.0057904436 0.008571411 0.0075391084 0.006681523 -0.005046432 0.0017538766 -0.011215147 0.01001831 -0.0010059174 0.0074247406 -0.0042551206 -0.00016362312 0.004584378 0.0033463372 -0.004083759 -0.005770152 0.0018745001 -0.008507118 0.008595616 0.0073467274 -0.0026167932 -0.007237581 -0.0075574336 -0.0027743927
өсімдіктер 0.00504435 0.0025837335 -0.009218327 0.009491881 -0.0082486905 -0.0023316632 0.008601524 0.009609874 -0.012501534 0.0027852547 -0.007922972 -0.0094090495 0.008760375 -0.007088929 -0.0068361107 -0.006744717 0.0044683707 -0.003489779 -0.0069463095 -0.011914771 0.0093611395 0.0112478435 0.012490288 -0.00011746758 0.003504392 0.0019535152 -6.454152e-05 0.0009530119 -0.0010657732 -4.948688e-05 0.00068244827 -0.005149795 0.011865034 -0.008590154 0.00015340038 0.0047241203 -0.0029284297 -0.0084484825 0.0013683377 -0.012172342 -0.007208122 -0.007771992 0.0038732658 0.005724078 0.003524301 0.0057867556 -0.009601453 -0.0068491446 -0.0049054273 -0.0038674765 0.011234008 -0.010597673 -0.0075291437 -0.0092651285 0.007872787 3.3559332e-05 0.0015501846 -0.0059591997 -0.006162348 0.0028633678 -0.0008757393 -0.0066591403 -0.0055000163 0.00021844731 -0.014839432 0.0045234566 0.00064598024 0.0136254495 -0.005559082 0.013039228 -0.0100248745 -0.006677526 0.009808754 0.00091491814 0.0002539174 1.565361e-05 0.010582414 -0.009127217 -0.008207073 0.0027270324 -0.0015390983 0.011374522 -0.008053735 -0.0003020799 -0.01159093 -0.010234984 -0.005506044 -0.0002267451 -0.0015806758 -0.0023698043 0.005336871 -0.0015569814 0.0016979894 0.005920633 0.016222183 -0.000367007 0.008636311 0.0040897364 -0.0027897798 -0.010400136
керек -0.0046799015 -0.0050482303 0.005554509 0.009160456 0.008644086 -0.014376099 0.0065570227 0.011468593 0.002786439 -0.010616083 -0.0001585305 -0.009993154 -0.009829092 0.003428521 0.010596364 0.0053130668 -0.006494586 -0.0017374873 -0.0050789746 0.003398946 -0.007992137 0.010910853 -0.0048237047 -0.0076823165 0.001131231 0.00014259957 -0.009906155 -0.00323241 -0.0027588897 -0.006420939 0.008438726 0.0040978687 0.011333576 0.00516546 -0.008602642 0.009144436 0.006367191 0.0030331665 0.0037874253 -0.009194003 0.0049196393 -0.0025397865 -0.0006194761 -0.006681504 0.0051601576 0.0037804525 -0.010653243 0.006997678 0.0056378064 0.0013799332 -0.00076533126 -0.00070907525 0.0069971154 0.0052756476 -0.0069098333 0.009784497 -2.270483e-05 -0.00782353 0.0068081724 0.007211959 0.004739556 0.008412917 -0.007193156 -0.007540718 -0.0055024885 -0.0013383598 0.0005221399 0.002835026 -0.012071441 0.006938021 5.9313215e-06 -0.0002410393 0.007849586 0.0014729222 0.009876434 -0.00016659187 0.009912362 -0.0014771782 1.9337514e-05 -0.002374443 0.00484456 0.0046433834 -0.0038491385 0.013932765 -0.01056729 0.009857705 0.0025394717 0.0021945531 -0.00078398664 -0.009470739 0.0019074702 0.0051850993 0.0063125836 0.010060685 -0.003544688 0.012200108 -0.0065761064 0.0012118344 0.008972132 -0.0042498643
анам -0.009076015 -0.006940931 0.00033134758 -0.0010721934 -0.00914097 -0.0016291848 0.0035931035 0.009612484 0.0022480886 0.0013877654 -0.010031958 0.0033251601 0.0034592382 -0.0071640774 -0.0014221002 -0.000421857 -0.00017289261 -0.004035208 -0.0065704435 -0.0052884454 0.004867451 0.0002253464 0.0020299298 0.001654927 -0.0047184713 -0.0073431837 0.007930199 -0.011740638 -0.0042420384 -0.0015712914 -0.005387814 0.0023765175 0.010262887 -0.0034220512 0.006359022 0.0036491668 -0.005298969 -0.004074872 -0.0018124686 0.0029357225 0.0077646235 0.003121913 -0.00653163 -0.007062528 0.008876037 0.0010901745 0.0037788283 -0.00095792976 0.010216328 -0.007837535 0.011716616 -0.00972527 -0.0006544793 0.0066192704 -0.009993701 0.0060390714 -0.00619621 -0.0064897276 0.0008623178 0.003821295 -0.0021047378 0.008291311 -0.0069326954 -0.0007464143 0.0058000293 0.004612467 -0.005499437 0.006177481 -0.008064576 0.004640021 0.00043064906 0.008192783 0.009949626 -0.004801042 0.012733243 -0.003945752 0.008973906 -0.0076966216 -0.010180368 -0.00025096216 -0.009286061 -0.002168004 -0.004003898 0.0043134815 -0.012203527 -0.00637173 -0.0058866413 0.0033398198 0.007884347 -0.00039098423 0.013381243 -0.0019148561 0.007946556 0.006906493 0.012372896 0.0025177433 0.0012654755 -0.000270947 -0.009236532 0.007869296
ағашта -0.003307486 0.008898565 0.0011807529 0.0025673998 -0.0009754656 -0.013953686 0.0025763176 0.007066639 -0.011748838 -0.005583083 -0.0025655387 -0.007176802 0.0034480116 0.002670119 0.0048798216 -0.0071156947 -0.005396642 0.0023824987 0.005927742 0.00079234986 0.0050467975 -0.0065015554 0.009466145 -0.0075946255 -0.008394789 0.008875177 -0.0033974173 -0.011322826 -0.004616204 0.005793909 -0.0009084245 0.00528994 0.001909497 0.0024678283 -0.00018351144 -0.006309625 -0.0033872565 0.0071077943 0.00059443904 -0.008931606 0.0075666113 0.0047313757 0.006727464 3.1157277e-05 -0.0068135113 -0.0046662334 0.0038804603 -0.0076857004 0.011607604 -0.0091864355 -0.006581521 -0.0067110574 0.007054955 -0.007409976 0.007917986 -0.008301541 0.004088472 0.0035871477 -0.0012920168 0.0110560935 0.005816445 0.00039782084 0.0049930313 0.005611611 0.00063660025 0.011860341 -0.00024274802 -0.006220531 -0.007249122 0.0019228603 -0.009236611 -0.0010266076 0.0100757405 -0.0047909236 0.0076621957 0.005667824 0.00040416582 0.0014355766 0.0036552476 -0.00588525 0.0029338622 0.010160502 -0.006716006 -0.0038560806 -0.010943848 -0.009024868 0.0052898703 0.008366815 0.009195961 -0.0016852204 0.003706702 0.004706005 -0.010207692 -0.008835282 0.008001694 -0.006441453 -0.0015239569 -0.0062120506 0.006580737 -0.0045060217
жемістер 0.008649435 0.0022535813 -0.0061406177 -0.0038539178 0.0017659253 -0.010575444 0.008839976 0.0146654025 0.0019200064 -0.009408265 -0.0062097143 -0.0027221853 -0.0018058405 -0.0050794347 0.008821362 0.00541683 -0.003412092 -0.0009514875 0.0041185473 -0.0033471966 0.008976995 -0.0004706729 -0.0050544115 -0.0015332763 -0.009220961 0.010472922 -0.009998981 -0.003705449 -0.0047003073 0.0029412713 0.0074398965 -0.007599295 -0.002065601 -0.0013498989 0.0023294413 0.00876253 -0.0009618123 -0.0029479573 -0.009099021 0.00069320993 -0.0070840176 -0.00022107833 -0.0039792233 -0.007803678 0.009820788 -0.0018257352 -0.011137234 -0.010798653 0.00292499 -0.0070662363 0.005777079 0.0019900973 0.0043455544 -0.0053087696 0.007157784 -0.007146967 0.008246205 -0.00024221976 -0.00312828 0.0061482345 -0.0019178117 -0.004063408 -0.0022742886 -0.007479719 -0.0037189887 -0.0027023533 0.0060445108 -0.0065988726 -0.0077353264 -0.0048860614 -0.012044584 -0.00019939244 -0.005312898 -0.005465376 0.006050555 0.0001355449 0.0045247404 0.008517522 -0.012391272 0.0069751116 -0.00922588 0.008175745 0.0038848305 0.013267925 -0.010272414 0.0033214556 -0.00622373 0.0027165823 -0.0023622843 -0.009038256 0.008530699 0.006401175 -0.0043819724 -0.0069076675 0.008020146 -0.0013315112 -0.006945712 -0.006741683 -0.0013586809 0.007403608
қуырылған -0.007179907 0.008195658 0.0057236603 -0.0050720507 -0.0015208521 -0.0054706684 0.0041516116 0.0026898205 -0.0041474737 -0.010334045 0.0063950485 -0.011279878 -0.009200104 0.0018365422 0.003101528 -0.0005352683 0.0008694101 0.0005141235 0.0009857333 0.0041904333 -0.0032263019 -0.0064652143 -0.0070759505 0.0076705017 0.0015951669 -0.0053468756 0.0055501303 0.007095495 0.006626826 -0.0067908834 -0.003611305 -0.001703336 -0.005250862 0.0036741297 0.0043907 -0.0037957395 0.007558879 -0.009306617 0.005597291 -0.0070623443 0.0023975715 -0.00523423 0.0030404003 0.007811029 0.00036978562 -0.0057015903 -0.009357137 0.0027757885 0.0057313335 0.0071637984 -0.0031379196 -0.010670442 0.007482855 -0.0043266835 0.003778419 0.009149382 -0.0036775533 0.0018191903 -0.0046436246 -0.0056401812 -0.005485503 -1.4914153e-05 -0.0074009616 -0.002699092 -0.004385364 0.008355286 0.0023148144 0.007621833 0.0018249328 -0.0010416899 -0.006404466 0.01020348 0.008690888 -0.009064105 0.006998242 0.009194856 0.009714769 -0.007934567 -0.003617023 0.0017216192 0.0021519866 -0.0007684014 -0.00683311 0.009327497 0.005647384 -0.00033102476 -0.0047725914 -0.001920062 -0.0035432482 0.0040354575 0.0026524006 -0.001037078 -0.009347921 -0.00097287423 0.0090203015 0.007957453 0.0053903903 -0.0042544487 0.009781922 -0.00015161622
емдік -0.00034209565 0.0079352595 -0.0072144098 0.0066412697 0.010135644 -0.0018809108 0.0051475526 0.01027794 -0.004750791 -0.010345417 0.0014096445 -0.002288232 -0.007583785 0.0029609369 0.005892564 -0.00840153 0.0031828866 0.0035302693 -0.009776573 -0.0026845708 -0.007905629 -0.006793402 0.008647549 -0.008298676 -0.0017221617 -0.007329183 -0.009439638 -0.009766069 -0.0020463404 0.0015275372 -0.005275225 -0.0070500257 -0.0003770879 -0.0038250946 -0.008157754 1.0931346e-05 0.0043002367 0.00020834379 0.005046662 -0.00046625233 -0.0005729685 -0.0008903868 0.008397225 0.0018024091 0.00549169 -0.00022022899 -0.011001286 0.0038904175 0.0075097666 0.0014028632 0.011746153 -0.006808557 0.0041316194 -0.007551848 -0.009996956 0.0039752587 0.0052925944 0.0060507106 -0.011240164 0.00647934 0.003197245 0.0047519403 -0.0003755859 0.003756822 0.0036960966 -0.0059080184 -0.008141353 0.010741589 -0.0047626845 -0.0044542057 -0.006489029 0.002081281 0.011255465 -0.0017309291 0.0027595419 -0.0055092713 -0.0063786963 0.0015258141 -0.0035279777 -0.006398161 -0.00020769122 -0.0076515996 -0.00667558 0.009437513 -0.0017950137 0.007903374 0.008454882 0.0032594246 0.008175576 0.0056247194 0.013235657 0.011543153 0.0045995764 0.0056698057 0.012218305 0.0016788482 -0.0034150416 0.00640317 0.0022651926 -0.006700376
жүзім -0.0022537827 -0.0035943482 0.008140423 0.0030728565 0.0045602284 0.0009031544 0.00993724 0.0014481465 -0.0090781525 -0.0057862788 -0.004005857 -0.012467682 -0.0015631813 -0.0074656974 0.0106041 -0.0044855694 -0.0054942956 -0.011998952 -0.0049755955 -0.015892867 0.0016093972 0.006520903 -0.0011778136 0.0070176404 -0.0027058038 -0.006449146 -0.0046278094 -0.005563633 -0.00942186 -0.009851198 -0.0012628679 -0.0008816288 0.007846304 -0.009910923 -0.0068374067 0.005084202 -0.00090526225 0.0010142839 -0.0032734976 0.0001042823 0.008672863 -0.011632889 0.0031157176 0.0057902015 0.0028188978 0.0051819226 -0.0071265902 -0.006004761 -0.005153774 0.010989234 -0.007242758 -0.0047007697 0.0005766513 -0.0045040646 0.008771286 -0.004943774 -0.0072113276 0.009695248 -0.010151563 0.012043614 -0.0033550977 0.0060645584 -0.00018615901 -0.005532006 -0.011142458 -0.0032752964 0.008511246 0.009523095 -0.0037709023 0.011185 0.0014212568 0.0046384074 0.005755311 -0.009782071 0.0129208425 -0.0064303284 -0.0014672012 0.0016596555 0.0022981423 -0.008091584 0.0003435163 0.00793327 -0.012736016 0.014827427 -0.007841694 0.009365087 -0.0048026284 0.011136146 0.012379236 -0.0095610265 0.00438737 -0.00541907 0.007994689 0.01045052 -0.001024613 0.0038997643 -5.3871005e-05 -0.010332595 0.0016821012 -0.011401423
жазда 0.0011646514 -0.0058465297 0.0047227493 0.0073266393 -0.0022838644 -0.009634313 -0.007985484 0.010934663 0.00028722917 0.006536022 0.0033475845 -0.0059385835 0.002686794 0.00944885 0.009988557 0.0065263067 -0.0076686977 -0.011280991 0.0060909353 -0.013822607 0.0037997493 0.009076097 -0.0016062829 0.006285825 -0.009052465 0.00712863 0.0041400003 0.0009512891 -0.010509798 0.008980731 0.010908262 -0.0009073614 0.006856646 0.00413049 -0.0037971414 0.009428709 -0.0033942547 -0.0038316413 -0.0024362549 -0.0083858315 -0.000101894635 -0.011483466 0.0028531011 0.008919492 0.008266282 0.0048973616 -0.006326961 0.0033601457 -0.004037572 -0.003653311 0.011986399 0.0046451106 -0.0040140133 -0.0057179327 0.006312842 0.0047877263 0.007361104 -0.0065114805 -0.002979717 0.001386571 0.0004926391 0.0025887927 -0.006369292 0.0028853093 -0.00623556 0.011208426 0.0006862888 0.012443688 -0.0045170444 0.009968291 -0.010032619 -0.00833212 0.0025877433 -0.0021922863 0.013760544 0.0062428922 -0.004179713 0.0076171914 -0.0022013972 -0.008819581 0.0043853465 -0.0005955861 -0.013589637 0.014043355 0.00473402 0.008497046 0.0022642082 0.012281382 0.008329287 -0.007379123 0.013393754 -0.0014970552 -0.009755432 0.009558627 -0.00038295315 0.01135318 -0.005481703 0.006714657 -0.0049857246 0.0023837024
көкөністер 0.008299127 0.006552149 -0.003498597 -0.005342535 -0.009408677 -0.0029449828 0.009496977 0.0030067405 0.0025970314 0.00427786 -0.009377577 -0.0016422599 -0.008070155 -0.0035521972 0.0018382892 -0.008254183 -0.0031922965 -0.012360462 -0.008508651 -0.014968379 0.010887695 0.009630306 0.0017608738 -0.0033222225 0.005247145 0.0022127435 -0.010828805 -0.010404639 -0.0015561526 0.007758317 0.006615831 0.0107966615 0.0100339 -0.0024356144 0.0063371137 0.014024335 0.008849076 0.00613521 -0.011207767 -0.0018495169 -0.007083679 -0.011839119 -0.009326398 0.0030427861 0.004166858 -0.008221527 0.0035735457 0.0058080866 0.007654114 0.009363426 -0.0014187015 -0.008159961 0.0053152787 -0.0023415035 -0.008229321 0.0060208067 -0.0022586156 -0.0048500453 0.00038646697 0.009847113 0.00737976 0.00073542027 0.008860464 0.001293836 0.0023120032 0.0027362234 0.004255869 0.010167617 -0.0144645255 0.011830204 -0.0019620946 0.006740987 0.0022669546 -0.0026355817 -0.001220281 -0.00067083334 -0.0008394671 -0.0050114766 -0.002583323 0.009485645 0.003522737 -0.0057590604 -0.012503538 0.00339601 0.00069183134 -0.009440456 0.008394403 0.008829416 0.0011520046 0.008532958 0.013213425 0.003506411 0.004489208 -0.008219929 -0.0026934564 0.0005500419 0.011977521 0.000120372984 0.006692467 -0.008690097
гүлдің 0.0031197951 0.0018997592 -0.001560542 -0.0034875872 0.005490447 -0.014132049 0.0064580115 0.011244861 -0.0048176767 -0.0061828876 -0.0074201785 -0.009109073 -0.005944665 0.0038681466 -0.0042423247 -0.0019880116 -0.008352899 -0.0068594194 -0.0018097032 -0.013591943 0.0039931703 0.010587129 0.0057638763 0.0011047102 -0.0054088254 -0.00036261714 0.0012525572 -0.0005217711 0.0067925905 -0.0012473438 0.00946182 0.00666207 0.0054394538 0.0053473082 -0.0064578624 -0.00038164807 0.0075748703 0.0061167846 0.0018864294 -0.00800562 0.008155152 -0.0006728501 -0.0008056536 0.0089166295 0.0075415075 0.0026296608 -0.0015385323 -0.010273813 -0.0006689025 0.0036913117 -0.0034654234 0.0062392433 0.008421901 -0.008587075 -0.006345546 -0.004281732 -0.00015616445 -0.0014931398 -0.0040340456 -0.00032460148 0.004655896 0.010238347 -0.0044004126 -0.009679817 0.0008386237 -0.004071159 0.008269653 0.005865512 -0.010941794 -0.003560757 -0.011597092 0.003139843 0.005353732 0.0027740253 0.0035875796 0.0027479539 0.0044599078 -0.0015246902 -0.010753596 0.0004249712 0.0026316217 -0.001336778 -0.005898715 0.0021618218 0.004971476 -0.002966613 0.011546804 -0.0001480658 -0.0071233823 -0.0069692526 -0.0007518223 0.0032458631 0.0047965343 0.0031961363 0.0135891605 0.003813708 0.0074844225 -0.0022799112 -0.0015380473 0.004864862
қосады 0.0008182438 0.009587734 -0.009226723 -0.009240935 -0.00023881049 -0.007016381 -0.0008326866 0.004698749 -0.0075156074 -0.0098547805 0.008050812 -0.005834462 -0.0038636923 -0.0010878986 -0.0006001503 -0.010167492 -0.0011214904 -0.0045232098 0.007609185 -0.0134033 -0.0039468766 -0.001061262 0.004278062 -0.0064633274 -0.006296585 -0.007473286 0.0044539184 -0.010862381 -0.0052248533 0.00020721497 0.004029402 -0.00925707 0.011050958 -0.0040367427 -0.0012239772 -0.005269613 -0.0077946796 0.0014109774 0.0028938723 -0.00052464724 0.006433957 -0.010288703 -0.0018808489 -0.0027681135 0.0017281058 0.0030327556 2.3157267e-05 -0.008900965 0.005868894 0.0073547047 -0.0041015353 0.0020641854 -0.003355807 0.00917364 0.0032305156 0.003785661 -0.00048444537 -0.008654462 0.0070836656 0.00025820412 0.008210098 0.004218044 -0.008140511 -0.0018108106 -0.0002528162 7.434385e-05 0.011302023 -0.0022306703 -0.01038627 0.00798473 -0.0059020184 -0.006308812 0.0047701118 0.005380509 -0.0023028166 -0.0025747542 -0.0056702686 0.001781932 -0.007235691 0.009493906 -0.0005177795 0.0030200656 -0.0068910196 0.01202441 -0.0029023525 -0.00830345 -0.0056656664 0.0040080766 0.010496026 0.0027893872 -0.0018558674 -0.0048218635 -0.010138607 0.004729826 -0.0052906033 0.0057671918 0.0036492446 -0.0031702328 -0.009300593 0.004663939
жақсы -0.0011789093 -0.008402143 -0.0082595255 0.0080977725 0.0022110573 -0.013336812 0.0005681392 0.010961671 -0.011781055 -0.00875727 -0.0011022511 -0.012599387 -0.0004386492 0.002655341 0.009101136 -4.2231313e-06 0.00197924 0.0015672117 -0.005239564 0.001668927 0.0007400051 0.00021868639 -0.008255202 -0.0002008812 0.0059306724 0.0024597612 -0.009333839 -0.005466677 -0.008079536 0.005847448 -0.0039683958 0.005977074 -0.002801822 -0.008860099 -0.0093799615 0.0074609546 -0.008262521 -0.008119751 -0.008391569 -0.0082311705 -0.003330679 -0.0018214154 0.0059253513 -0.0009783263 -0.0024958875 0.0002606135 0.0040921383 -0.006723116 -0.002968127 0.006355776 0.008376591 -0.008983494 0.009405232 -0.0095908465 -0.008356999 -0.0041656494 0.0025206448 0.0002420831 0.001683896 0.008879491 0.005521672 -0.0027427662 -0.006273637 -0.00951458 -0.0036165025 0.012374266 -0.006278019 0.0066604684 0.0011601091 -0.000110684625 -0.009424239 -0.0047110743 -0.0023234868 -0.0067845196 0.009329017 -0.006269099 -0.0015598618 0.00454678 -0.0023615619 -0.006817935 -0.00587568 0.005013097 -0.00128654 0.0026796581 -0.0029825156 0.0027117617 0.0033705565 0.0011155072 0.008158765 -0.007977158 0.010021591 -0.00810079 -0.0025596768 0.0074882912 0.0007826049 0.0093581565 0.007302314 -0.009796782 0.0006331024 -0.006019822
кішкентай -0.00911224 0.0003180226 0.0056335717 0.008560748 -0.004878634 -0.0070212386 -0.0047426596 0.0057591666 0.000639583 -0.011541095 0.002290361 -0.011002802 -0.00029765448 0.00532553 -0.004714651 -0.00064417644 -0.0016999579 -0.011424514 -0.0033180534 -0.00024504674 -0.008013988 -0.0052259285 0.0005553613 0.0076309703 0.0010023699 0.01017285 -0.008792422 0.007298407 -0.006408528 -0.0064672353 -0.0058762897 0.002483995 -0.00067421456 0.0059865615 -0.0019748602 0.0056006764 0.0063711368 -0.010739985 -0.0030607602 -0.007849532 -0.008078591 0.00060993904 0.0019508697 -0.0025279203 0.00056888687 -0.007920803 -0.0045322413 0.0001663036 0.009906671 0.008005007 -0.0019512549 0.0025706296 -0.0017856299 -0.0043961424 -0.004288718 -0.0047082924 0.004017154 -0.0073006833 -0.008956537 -0.002684066 0.008055531 0.0022043746 0.005706574 0.007052629 -0.009045996 -0.0023796535 0.008836251 0.007356557 0.0018494637 0.012557134 0.0067927926 -0.0020862785 0.0032656547 0.005562425 0.011727241 0.011257673 -0.007194349 -0.004914252 0.0027548934 0.0018441546 -0.00078995456 0.008736579 0.0033771954 -0.0031815267 -0.0046330304 -0.008351899 0.008470822 0.006017667 0.0002578375 0.0015812664 0.010602004 0.00992974 0.005996205 0.0038779532 0.0053182673 0.010320473 0.002881018 -0.0015835358 -0.008923879 0.0013479714
ащы -0.009203452 0.0074878586 -0.0063409833 -0.0018560697 0.0014496355 -0.0052689286 -0.008026714 0.00757788 -0.008239675 -0.010218384 0.0036586325 -0.0025499382 0.0059941118 -0.006500401 0.0009632986 -0.001316729 0.006345409 -0.011783818 0.005194254 -0.012932255 -0.007487343 0.0014429628 -0.0018885391 -0.0043514427 -0.0057174168 0.00425003 -0.010183024 -0.0004277192 0.0026765245 -0.00048046513 0.0012120059 0.0076804855 -0.007896934 -0.010359403 0.00312636 0.011198551 -0.0073628644 -0.010007517 -0.0013421886 -0.011678946 0.0026158565 0.007050234 -0.006375692 -0.006816277 0.010903422 -0.0016726718 -0.004861176 -0.0038508018 -0.0070394524 -0.004071247 -0.0027727801 -0.0007274452 0.0014670448 0.008037572 0.006240233 -0.0002702865 -0.009650343 0.0026918403 -0.0071093338 0.010404601 0.004575938 -0.0006036714 0.006746691 -0.004248257 -0.0058779847 0.0014789518 0.009424029 0.007781742 -0.0007196668 0.0067064776 -0.004599292 0.009825389 -0.0051469896 -0.003224524 -0.002948492 0.009744896 -0.0022588097 -0.0021378181 0.0052845897 -0.008988122 -0.0035570713 0.003833891 -0.008943487 0.011930899 -0.0005624209 -0.005423078 0.006111117 0.010644404 0.0027840794 0.006661231 -0.004341187 -0.0020098407 0.009817421 0.006402068 0.0047470527 -0.0017437502 0.00580171 0.0009367552 0.009004196 -0.00090091577
қара 0.0077219196 -0.004734093 -0.008225711 -0.0016935254 0.0032711225 -0.0060520708 0.0070204386 -0.0041682795 -0.010834336 0.0059492853 0.006075061 -0.006335904 -0.0047278386 -0.0030868652 0.0001341352 0.008454138 0.0016418857 -0.004729308 -0.004231732 -0.006686751 -0.008736168 0.007725649 -0.00794588 -0.0035557547 -0.007561354 0.00951627 0.0047846613 -0.0022590915 0.00229074 -0.0024812631 0.011784467 -0.0031398388 0.006754612 -0.0054547293 0.007967943 0.0123949675 0.006674632 -0.002394205 -0.002548538 -0.011792379 0.009779833 -0.011071395 -0.0070136143 0.005569553 0.00015253104 0.0068790438 -0.009096867 0.007928604 0.004280315 -0.007848937 0.005453652 -0.0061439374 0.007278607 0.0068100793 -0.009529708 0.00782108 0.0057517914 0.00672082 -0.0082772495 -0.005019441 -0.008359663 0.0055150236 -0.0038560622 0.0038997484 0.0023276648 0.010292583 0.0035154358 0.0012436725 -0.0010906076 0.006384323 -0.0106277 -0.005385063 0.0012346632 0.0050045764 0.0023424202 -0.0084988205 0.00028768874 0.007239235 0.0042580212 0.0042799124 -0.0055743647 -0.002588825 -0.0051159533 -0.0022147642 -0.010487388 -0.00067153026 0.0031562443 0.008049028 0.005712134 0.008300321 -0.0040476336 0.011133199 -0.003583935 0.0014219453 -0.0006710929 -0.001919154 4.5901685e-05 -0.009331816 0.009665747 0.0034757222
пиязды -0.0031610793 0.0032183612 0.007167369 -0.0059908167 0.004206041 -0.0031896937 0.003984905 0.0020880026 -0.011842008 0.004373726 -0.0016266586 -0.010497068 0.00019976817 -0.005626386 0.008135828 -0.007165243 -0.0012097155 -0.0030594624 -0.0051259785 -0.007999617 0.007863006 0.002666165 -0.008366365 -0.0006863003 -0.010032312 -0.002703639 0.004054672 0.0018364688 -0.00739071 0.0013050596 0.007835748 -0.0069265943 -0.0014518796 -0.0041249655 -0.010439725 0.004969848 0.006803902 0.0005804917 0.0015181801 -0.003845356 -0.00024130246 -0.008884108 -0.0009421022 0.0065355957 0.0053717988 -0.0005809931 0.0067013944 0.0016668725 -0.0055378815 0.008142156 0.011076849 -0.009998917 0.008122081 -0.0072141346 -0.0010484863 0.005955902 -0.005466241 -0.0076519614 -0.008611389 -0.008358937 -0.0059593963 0.009960711 0.002991879 -0.010095898 0.006224362 0.009192262 0.009193858 0.011804308 -0.011118529 0.0011844236 0.00036620547 0.0030814202 0.006960901 -0.0076367958 0.0074363304 0.011289729 -0.007984142 0.0079263905 0.0012483355 -0.0032078421 -0.002498984 -0.0075992737 -0.01056312 0.009011366 -0.005154774 0.009871694 -0.0067074304 -0.0038686923 0.00848794 0.0076570413 0.006499192 0.008925769 0.0062968205 -0.005140141 0.012099006 -0.0041884556 -0.0014562169 -0.007933228 0.006719005 -0.0053825136
сатылады 0.0023496468 -0.00055149256 -0.0016118943 -0.0059926994 -0.005366729 -0.0069873813 0.0013521918 0.004927195 -0.0048242426 0.000614304 -0.005783586 0.008213842 -0.001291153 -0.0063747494 -0.001775657 0.0075044264 -0.00049523835 -0.0072985278 -0.009002749 -0.009763538 -0.0029770192 0.008518892 -0.0064250985 0.0010373576 -0.0005896538 0.004458514 -0.008913765 0.00662283 -0.004171185 0.0051806225 -0.0076932223 0.005560814 -0.0067670783 -0.004592536 -0.0026115878 -0.0013619817 -0.00024021014 -0.0017912012 0.003738311 -0.004826322 -0.0033845238 -0.008244416 0.007935916 0.004586069 0.01110619 0.004566717 -0.005655085 0.007139888 -0.005214805 0.0035281419 -0.0022197845 -0.0006952726 0.0045276615 -0.002514219 -0.004970112 -0.0007690337 0.0007465318 0.006643783 -0.0068109822 0.006045908 -0.0032961383 -0.007764818 -0.0053858636 0.0010485781 0.006723365 0.009690992 0.0102923475 0.008766576 -0.005124198 0.0003111859 0.0073425374 0.007095386 0.00789439 0.0069077434 0.0037294133 0.0033304256 -0.007670387 0.0077286926 0.0077371984 -0.0064737173 0.00029865897 0.009678734 0.0011285534 0.010072521 0.0059730243 -0.0018880253 0.009916195 0.008591077 -6.199837e-05 -0.00023188784 0.012085031 0.007424991 -0.0066700843 -0.0029012568 -0.00051521463 0.004894433 0.0023058932 -0.010105893 0.0029339672 0.008898834
орманда 0.0009975436 0.005982709 0.001047916 0.007519015 0.009303566 -0.0021009166 -0.0011418889 0.009188943 -0.01021912 0.006088398 -0.0041224076 0.0073126443 -0.010513976 -0.0019402464 0.009836324 -0.005134633 -0.0014283555 0.001712006 0.008322633 -0.0058801393 -0.006093406 0.011008094 -0.008078057 0.0007742512 0.0049692816 -0.0070749116 -0.0066818767 -0.011377031 -0.002056724 0.004966128 -0.0060072164 -0.002268954 0.010635166 -0.0064784167 0.0016214036 0.0075135333 -0.00310775 -0.007593822 0.0069674496 -0.006135021 0.009623685 -0.0057911086 0.0024416752 0.0055261613 0.0038111156 0.003015265 -0.0072803632 0.006958309 0.0008499002 -0.003521901 0.00733292 0.008897738 -0.0046459236 0.0011250441 0.00351196 -0.0011322567 0.0012951941 0.00942883 0.0060619735 -0.0043023727 -0.0023199022 0.009648575 -0.0001587701 -0.010976921 -0.0035194596 -0.0044167927 0.0027658083 0.0038223614 -0.0077058338 -0.00018761185 0.006457059 0.0050536897 0.005326938 0.002010591 0.011524405 -0.0031579058 0.007462646 -0.0009536698 -0.01034758 -0.008560226 -0.0030602207 0.009453428 -0.0015280506 -0.004353052 -0.001099044 -0.0037884729 -0.002266333 0.012204945 0.008915931 8.5399064e-05 0.0060489 0.0030505701 -0.010141226 0.0037090806 0.011882866 0.0067380234 0.004597382 -0.0059600403 0.0032484718 -0.009059349
ананас 0.00308618 0.004037528 -0.0016264903 -0.0011837108 0.003056481 -0.003126663 0.0030264952 0.014856559 0.0013037407 -0.0006738423 -0.0030793042 -0.009044521 -0.010488333 -0.0027390642 0.004716175 0.006486787 0.001264205 -0.00847586 0.0025538758 -0.009689134 1.2034052e-05 0.010054929 0.009943099 -0.0005703437 -0.0064411145 0.0044781365 0.008589723 0.006388665 -0.0037436879 0.0070841894 0.01185653 -0.008803806 0.011292752 -0.0017127274 -0.0070350654 0.007813598 0.009466185 -0.009817876 0.0056281355 -0.010027058 -0.0071100784 0.0019521184 -0.005305054 0.004447248 0.010298539 0.008420682 0.0045412346 -0.010295696 0.0057401317 -0.0077097067 0.0017492763 0.008639126 -0.0043068687 0.0046320427 -0.006678269 -0.006158055 0.0089322785 0.0038517902 0.005666362 0.0047593527 0.0018743844 0.0041589104 -0.008120275 0.0053691585 -0.0075517013 0.0070686797 -0.0037278098 0.003824274 0.0008814712 0.001820923 -0.009767719 -0.005568227 -0.007628756 0.00977263 -0.0013219751 0.0007094739 -0.00799231 -0.0044786534 -0.007803147 0.0045286254 0.0041693873 0.0049781133 0.0064307773 0.0064145583 0.0074921837 0.007623625 0.004476669 0.006337224 -0.0045534903 -0.0028477476 0.009162653 -0.00605139 0.0023150665 -0.00699191 0.014270362 0.0024776289 0.0030872906 -0.0069655646 0.006582875 -0.008591703
гүлді -0.008776124 0.008543804 -0.004281451 -0.0010871488 0.0058325795 -0.0014912407 0.007949893 0.013879169 0.002612129 -0.011415483 0.0049382467 0.0058437814 -0.0048164227 0.0019960476 -0.002507147 -0.0045613204 0.009384147 -0.0044056526 0.0022393619 -0.012178614 0.006891271 -0.0021123858 -0.0034969284 0.0012134509 0.009010655 -0.0054860953 0.0021388282 -0.003701759 -0.00956662 -0.0047061737 -0.005296474 0.0065746773 0.0004997641 -0.007715462 -0.0009232188 0.008984571 0.01032931 -0.01259009 -0.0017866859 -0.0058412645 -0.001918733 -0.004417773 0.007642082 -0.0019975319 0.013308874 -0.0012764677 -0.0027607458 0.0052607544 0.009835861 0.0018963674 0.002320748 0.0053123822 -0.0027437808 0.005139971 -0.0012877287 -0.004238935 0.0068811737 -0.0038560766 -0.00025233193 -0.0046112435 0.0040648584 0.0064648194 0.005428644 -0.009822427 -0.009432365 0.0101259975 0.0051332554 0.004539461 -0.010053625 0.0036426405 -0.0119069265 0.0021071236 -0.0014504504 0.0006562845 0.008586425 0.0043851063 -0.00533935 0.0007521281 -0.009928846 -0.0024215968 0.000547827 0.009452559 -0.011112129 0.0077315574 0.005509775 0.0100389635 0.008294593 -0.0028453344 0.0073490418 0.008583245 0.008649836 0.004955519 -0.0019650348 0.0046227486 0.009704884 0.012307059 -0.0016349884 -0.011686529 0.007430183 -0.008029153
әкем -0.0021252213 0.0034371987 -0.0022635106 -0.0044801543 0.0013583221 -0.015402204 0.0028837875 0.0021222644 -0.008409786 0.001522776 0.001462531 0.0004076082 3.5287732e-05 -0.008680904 0.010837222 -0.0043736976 -0.0014196715 0.0034496184 -0.0011010057 -0.0033308277 0.0028013382 0.0034649414 0.008597757 0.008877974 -0.0013246296 -0.0027281363 0.0030995263 -0.01092057 0.0063066124 0.002047474 0.008817817 0.003391226 0.0014212728 -0.0013342355 -0.0068952227 0.013325857 0.0056149582 0.0009782184 -0.006095457 -0.012761812 0.008660732 -0.00091585703 -0.0050528105 -0.008702107 -0.00062940264 -0.00013850117 -0.011014913 -0.0015979013 0.0055931825 -0.008914962 0.002075078 -0.0078645395 -0.0024334793 -0.001002555 -0.010897323 -0.0016327585 -0.0061079077 -0.007063152 -0.00026766397 0.0045542084 0.010187219 0.009314177 -0.006262603 -0.010554691 0.004455166 0.008495641 0.008567277 0.00027096496 -0.00881016 7.878376e-05 -0.011084752 0.00660406 -0.00032847255 0.008775198 -0.0019598403 0.011636943 -0.0030350336 0.008839768 -0.008341067 -0.006378115 0.00630009 -0.0083542345 -0.013018169 0.010161608 -0.012298778 0.0054449425 0.005437039 -0.0025592407 0.0065321038 0.0011185323 0.012580162 0.0052613844 -0.0053755757 -0.0013956814 0.011918316 -0.0035570934 0.011401524 -0.0059173116 -0.0036763917 -0.006021007
салатқа 0.0021244169 -0.008545812 0.0025609403 -0.005103653 0.010110595 -0.009192991 -0.0067499867 0.007818881 0.0071355603 0.0012607909 -0.002602227 0.0015532367 -0.009802683 -0.0036006488 -0.004046007 0.0009962288 -0.0059282365 -0.010162714 -0.0074844924 0.00078281196 0.0032057385 0.009712028 0.003517993 0.004949881 0.003930173 0.0051434687 -0.0060461108 -0.00011233238 -0.0014477838 0.0051288074 -0.0045974944 -0.0001328489 0.005994036 -0.0064469925 -0.010019921 0.008477892 -0.0004899242 -0.0016015552 -0.006937817 0.0055396208 0.001454867 -0.00096079573 -0.0010463678 0.0006557304 0.008247331 -0.010439733 0.001395422 -0.0068929982 0.01145959 0.0052920487 -0.0039585605 -0.00225972 -0.004520995 0.008726478 0.008449731 0.0036686324 0.01014733 -0.004376111 0.0014586718 -0.0034971451 -0.008175801 -0.004023078 -0.0012792608 -0.0068224412 -0.0069288537 0.002898465 0.0012380613 -0.0060598454 0.0042914003 0.005078937 -0.01148751 -0.00075620925 -0.0054261046 0.0076568564 0.001578366 0.0090863 0.005928156 -0.00388046 -0.011099006 -0.005375549 0.0076915757 -0.00036384168 -0.0033123046 0.0039434927 -0.010067399 0.004260937 -0.006759584 0.012556837 -0.0058803284 0.0076347664 0.00089944265 -0.0003718 -0.0022950657 0.0013135393 0.0059327837 0.0036500075 0.00095713034 0.0057220343 -0.005691283 -0.008789772
шабдалы -0.008420453 0.007740334 -0.0027335205 -0.004998019 0.0050648246 -0.012684403 0.004316152 0.014768532 0.004709669 -0.005134387 0.0023081144 0.0024740396 0.008930188 -0.002228534 0.0019846673 -0.0052198446 -0.0025749716 -0.0023470465 0.0013903226 -0.010460404 0.005026524 -0.0040136827 -0.0034076557 -0.009572007 0.007021832 0.00490804 -0.0033005609 0.0063501033 0.00021698147 -0.009986802 -0.0054414403 -0.0035777183 -0.0049996176 0.0056795506 0.0035439583 0.0055431887 -0.00018852804 -0.009618159 0.005016994 -0.008453074 -0.0018372884 -0.009190038 -0.0028654616 -0.009439843 0.006251767 -0.008471105 0.0056850524 -0.00881608 -0.003587673 0.0011457269 -0.005914702 0.004282147 -0.0034066145 0.00063795736 0.0070626074 0.0050418177 9.325124e-05 0.008204028 -0.0017387066 0.0074308272 0.006616238 -0.0075060315 0.002117901 -0.010870684 -0.0041272747 0.011087612 -0.0007778322 -0.0021210823 -0.00019286969 0.011221188 0.00443681 -0.0060005463 0.009707281 0.0076799253 -0.0024327047 0.00055544445 0.00055208046 -0.009461657 -0.00482755 0.011104934 -0.0038709915 -0.0063862405 -0.007706401 -0.0051236893 -2.8088667e-05 0.0058860504 0.0023067505 0.00020084326 0.012300835 -0.009688949 -0.0010300118 -0.007786545 0.009301521 -0.00091063784 -0.0013160759 -0.005406227 0.010339433 -0.0050953347 -0.0052797566 0.0023875393
